{"learner":{"attributes":{"scikit_learn":"{\"_estimator_type\": \"classifier\"}"},"feature_names":[],"feature_types":[],"gradient_booster":{"model":{"gbtree_model_param":{"num_parallel_tree":"1","num_trees":"283"},"iteration_indptr":[0,1,2,3,4,5,6,7,8,9,10,11,12,13,14,15,16,17,18,19,20,21,22,23,24,25,26,27,28,29,30,31,32,33,34,35,36,37,38,39,40,41,42,43,44,45,46,47,48,49,50,51,52,53,54,55,56,57,58,59,60,61,62,63,64,65,66,67,68,69,70,71,72,73,74,75,76,77,78,79,80,81,82,83,84,85,86,87,88,89,90,91,92,93,94,95,96,97,98,99,100,101,102,103,104,105,106,107,108,109,110,111,112,113,114,115,116,117,118,119,120,121,122,123,124,125,126,127,128,129,130,131,132,133,134,135,136,137,138,139,140,141,142,143,144,145,146,147,148,149,150,151,152,153,154,155,156,157,158,159,160,161,162,163,164,165,166,167,168,169,170,171,172,173,174,175,176,177,178,179,180,181,182,183,184,185,186,187,188,189,190,191,192,193,194,195,196,197,198,199,200,201,202,203,204,205,206,207,208,209,210,211,212,213,214,215,216,217,218,219,220,221,222,223,224,225,226,227,228,229,230,231,232,233,234,235,236,237,238,239,240,241,242,243,244,245,246,247,248,249,250,251,252,253,254,255,256,257,258,259,260,261,262,263,264,265,266,267,268,269,270,271,272,273,274,275,276,277,278,279,280,281,282,283],"tree_info":[0,0,0,0,0,0,0,0,0,0,0,0,0,0,0,0,0,0,0,0,0,0,0,0,0,0,0,0,0,0,0,0,0,0,0,0,0,0,0,0,0,0,0,0,0,0,0,0,0,0,0,0,0,0,0,0,0,0,0,0,0,0,0,0,0,0,0,0,0,0,0,0,0,0,0,0,0,0,0,0,0,0,0,0,0,0,0,0,0,0,0,0,0,0,0,0,0,0,0,0,0,0,0,0,0,0,0,0,0,0,0,0,0,0,0,0,0,0,0,0,0,0,0,0,0,0,0,0,0,0,0,0,0,0,0,0,0,0,0,0,0,0,0,0,0,0,0,0,0,0,0,0,0,0,0,0,0,0,0,0,0,0,0,0,0,0,0,0,0,0,0,0,0,0,0,0,0,0,0,0,0,0,0,0,0,0,0,0,0,0,0,0,0,0,0,0,0,0,0,0,0,0,0,0,0,0,0,0,0,0,0,0,0,0,0,0,0,0,0,0,0,0,0,0,0,0,0,0,0,0,0,0,0,0,0,0,0,0,0,0,0,0,0,0,0,0,0,0,0,0,0,0,0,0,0,0,0,0,0,0,0,0,0,0,0,0,0,0,0,0,0,0,0,0,0,0,0,0,0,0,0,0,0],"trees":[{"base_weights":[-3.8083017E-2,-1.4603587E0,2.332203E0,-1.4707475E0,-1.0526241E0,1.1103078E0,2.7635312E0,-1.4774482E0,-1.410138E0,-9.579122E-1,-1.08737044E-1,1.274876E0,2.4704656E-1,2.3937168E0,3.0859818E0,-1.1591069E-1,-1.15910694E-1,-1.2963822E0,-1.4248302E0,-1.2015567E0,-3.819627E-2,1.0293001E0,2.7468956E0,1.17406346E-1,5.062021E-2,2.5717642E0,1.9817265E0,2.171511E-1,3.094468E0,-1.0286771E-1,-1.0031582E-1,-1.1359287E-1,-1.0490817E-1,-7.6057136E-2,-1.1591069E-1,1.093082E-1,2.2453262E-2,2.0566621E-1,2.3624974E-1,4.8730195E-2,-1.2506887E-2,2.3855145E-1,1.9628707E-1,8.6422704E-2,1.7342608E-1,2.4277124E-1,2.4277124E-1],"categories":[],"categories_nodes":[],"categories_segments":[],"categories_sizes":[],"default_left":[0,0,0,0,0,0,0,0,0,0,0,0,0,0,0,0,0,0,0,0,0,0,0,0,0,0,0,0,0,0,0,0,0,0,0,0,0,0,0,0,0,0,0,0,0,0,0],"id":0,"left_children":[1,3,5,7,9,11,13,15,17,19,-1,21,23,25,27,-1,-1,29,31,33,-1,35,37,39,-1,41,43,-1,45,-1,-1,-1,-1,-1,-1,-1,-1,-1,-1,-1,-1,-1,-1,-1,-1,-1,-1],"loss_changes":[1.0731702E4,8.427734E0,6.291831E2,7.8808594E-1,1.5608559E0,4.4248627E1,1.05217285E2,2.4414062E-4,3.2281494E-1,4.418083E0,0E0,9.456537E1,2.5742843E0,3.014746E1,1.2724609E0,0E0,0E0,5.79834E-3,3.458252E-1,1.624691E0,0E0,6.0640503E1,1.2401428E0,5.2460527E0,0E0,9.393066E0,2.4978485E1,0E0,4.8828125E-4,0E0,0E0,0E0,0E0,0E0,0E0,0E0,0E0,0E0,0E0,0E0,0E0,0E0,0E0,0E0,0E0,0E0,0E0],"parents":[2147483647,0,0,1,1,2,2,3,3,4,4,5,5,6,6,7,7,8,8,9,9,11,11,12,12,13,13,14,14,17,17,18,18,19,19,21,21,22,22,23,23,25,25,26,26,28,28],"right_children":[2,4,6,8,10,12,14,16,18,20,-1,22,24,26,28,-1,-1,30,32,34,-1,36,38,40,-1,42,44,-1,46,-1,-1,-1,-1,-1,-1,-1,-1,-1,-1,-1,-1,-1,-1,-1,-1,-1,-1],"split_conditions":[4.7985658E-1,-2.3480846E-2,1.2612926E0,-4.86361E-1,4.6097457E-1,1.2553983E0,1.3053536E0,-1.005705E0,-4.2042196E-1,1.5330625E-1,-1.08737044E-1,1.240063E0,1.2598007E0,1.3019109E0,1.3056028E0,-1.1591069E-1,-1.15910694E-1,-4.5149517E-1,-2.2611155E-1,1.3155542E-1,-3.819627E-2,1.2193501E0,1.2506183E0,1.2577245E0,5.062021E-2,1.2701114E0,1.3028111E0,2.171511E-1,1.3061599E0,-1.0286771E-1,-1.0031582E-1,-1.1359287E-1,-1.0490817E-1,-7.6057136E-2,-1.1591069E-1,1.093082E-1,2.2453262E-2,2.0566621E-1,2.3624974E-1,4.8730195E-2,-1.2506887E-2,2.3855145E-1,1.9628707E-1,8.6422704E-2,1.7342608E-1,2.4277124E-1,2.4277124E-1],"split_indices":[0,0,0,0,0,0,0,0,0,0,0,0,0,0,0,0,0,0,0,0,0,0,0,0,0,0,0,0,0,0,0,0,0,0,0,0,0,0,0,0,0,0,0,0,0,0,0],"split_type":[0,0,0,0,0,0,0,0,0,0,0,0,0,0,0,0,0,0,0,0,0,0,0,0,0,0,0,0,0,0,0,0,0,0,0,0,0,0,0,0,0,0,0,0,0,0,0],"sum_hessian":[3.183348E3,1.9895377E3,1.1938102E3,1.9401055E3,4.9432228E1,3.1146677E2,8.823434E2,1.7469698E3,1.9313565E2,3.849589E1,1.0936334E1,2.6159708E2,4.986968E1,4.109874E2,4.7135596E2,2.5372293E1,1.7215975E3,2.2091393E1,1.7104425E2,2.5372293E1,1.31236E1,2.2419482E2,3.740226E1,3.7620987E1,1.2248693E1,2.869694E2,1.2401802E2,1.2248693E1,4.5910727E2,1.2029966E1,1.0061426E1,1.353918E2,3.5652447E1,1.3779779E1,1.1592513E1,1.5048395E2,7.3710884E1,2.5372293E1,1.2029966E1,1.3342326E1,2.427866E1,3.7183533E1,2.4978586E2,2.559102E1,9.8427E1,2.493484E1,4.3417242E2],"tree_param":{"num_deleted":"0","num_feature":"1","num_nodes":"47","size_leaf_vector":"1"}},{"base_weights":[-3.2029647E-2,-1.4073956E0,2.0330725E0,-1.417874E0,-9.9883616E-1,1.0017596E0,2.380275E0,-1.4251938E0,-1.354048E0,-9.100098E-1,-1.0426594E-1,1.1484586E0,2.1274026E-1,2.0785186E0,2.6362906E0,-1.1181116E-1,-1.1181116E-1,-1.2553622E0,-1.3674079E0,-1.1446098E0,-3.82523E-2,9.3910486E-1,2.340159E0,3.899087E-2,1.020416E-1,2.2312312E0,1.7243809E0,1.8671969E-1,2.6430075E0,-9.939312E-2,-9.743763E-2,-1.0894496E-1,-1.00873336E-1,-7.4039154E-2,-1.11811146E-1,9.6056364E-2,1.2534789E-2,1.7769311E-1,1.9604737E-1,-2.8709998E-2,2.582951E-2,2.0394626E-1,1.7070164E-1,8.0252826E-2,1.4913574E-1,2.0735267E-1,2.0735267E-1],"categories":[],"categories_nodes":[],"categories_segments":[],"categories_sizes":[],"default_left":[0,0,0,0,0,0,0,0,0,0,0,0,0,0,0,0,0,0,0,0,0,0,0,0,0,0,0,0,0,0,0,0,0,0,0,0,0,0,0,0,0,0,0,0,0,0,0],"id":1,"left_children":[1,3,5,7,9,11,13,15,17,19,-1,21,23,25,27,-1,-1,29,31,33,-1,35,37,-1,39,41,43,-1,45,-1,-1,-1,-1,-1,-1,-1,-1,-1,-1,-1,-1,-1,-1,-1,-1,-1,-1],"loss_changes":[8.99517E3,8.137939E0,4.5333984E2,8.6621094E-1,1.3941498E0,3.69093E1,7.317285E1,2.4414062E-4,2.514038E-1,3.712164E0,0E0,6.708298E1,1.5730884E0,2.351184E1,8.820801E-1,0E0,0E0,3.5133362E-3,2.9138184E-1,1.3573818E0,0E0,5.0845978E1,4.7964478E-1,0E0,3.8255847E0,6.197998E0,1.6223236E1,0E0,4.8828125E-4,0E0,0E0,0E0,0E0,0E0,0E0,0E0,0E0,0E0,0E0,0E0,0E0,0E0,0E0,0E0,0E0,0E0,0E0],"parents":[2147483647,0,0,1,1,2,2,3,3,4,4,5,5,6,6,7,7,8,8,9,9,11,11,12,12,13,13,14,14,17,17,18,18,19,19,21,21,22,22,24,24,25,25,26,26,28,28],"right_children":[2,4,6,8,10,12,14,16,18,20,-1,22,24,26,28,-1,-1,30,32,34,-1,36,38,-1,40,42,44,-1,46,-1,-1,-1,-1,-1,-1,-1,-1,-1,-1,-1,-1,-1,-1,-1,-1,-1,-1],"split_conditions":[4.7985658E-1,-2.3480846E-2,1.2612926E0,-4.86361E-1,4.6097457E-1,1.2553983E0,1.3053536E0,-9.968398E-1,-4.2042196E-1,1.5330625E-1,-1.0426594E-1,1.240063E0,1.2577245E0,1.3019109E0,1.3056028E0,-1.1181116E-1,-1.1181116E-1,-4.5149517E-1,-2.2611155E-1,1.3155542E-1,-3.82523E-2,1.2241284E0,1.2506183E0,3.899087E-2,1.2588334E0,1.2701114E0,1.3028111E0,1.8671969E-1,1.3070128E0,-9.939312E-2,-9.743763E-2,-1.0894496E-1,-1.00873336E-1,-7.4039154E-2,-1.11811146E-1,9.6056364E-2,1.2534789E-2,1.7769311E-1,1.9604737E-1,-2.8709998E-2,2.582951E-2,2.0394626E-1,1.7070164E-1,8.0252826E-2,1.4913574E-1,2.0735267E-1,2.0735267E-1],"split_indices":[0,0,0,0,0,0,0,0,0,0,0,0,0,0,0,0,0,0,0,0,0,0,0,0,0,0,0,0,0,0,0,0,0,0,0,0,0,0,0,0,0,0,0,0,0,0,0],"split_type":[0,0,0,0,0,0,0,0,0,0,0,0,0,0,0,0,0,0,0,0,0,0,0,0,0,0,0,0,0,0,0,0,0,0,0,0,0,0,0,0,0,0,0,0,0,0,0],"sum_hessian":[3.1670112E3,1.9009626E3,1.2660485E3,1.8534276E3,4.7535065E1,3.1887598E2,9.471725E2,1.6627372E3,1.9069049E2,3.7458046E1,1.007702E1,2.6888364E2,4.9992363E1,4.347491E2,5.124234E2,7.222011E1,1.590517E3,2.2737139E1,1.6795335E2,2.4083212E1,1.3374833E1,2.2870546E2,4.017817E1,1.4012013E1,3.598035E1,3.0376056E2,1.3098857E2,1.3087505E1,4.9933588E2,1.2204953E1,1.0532185E1,1.3326056E2,3.4692787E1,1.4035197E1,1.0048015E1,1.6742142E2,6.1284042E1,2.7262644E1,1.2915525E1,1.1758707E1,2.4221643E1,3.9708347E1,2.6405222E2,2.6341824E1,1.0464675E2,6.585683E1,4.3347903E2],"tree_param":{"num_deleted":"0","num_feature":"1","num_nodes":"47","size_leaf_vector":"1"}},{"base_weights":[-3.8959637E-2,-1.363778E0,1.8029323E0,-1.3713955E0,-7.998913E-1,9.0227884E-1,2.1010835E0,-1.3744309E0,-1.141365E0,-3.368132E-2,-1.0121496E-1,1.0393733E0,1.3856529E-1,1.8345648E0,2.329316E0,-1.3802137E0,-1.3237205E0,-7.56065E-2,-1.0828233E-1,8.5305697E-1,2.091689E0,2.4701957E-2,3.7168745E-2,1.956659E0,1.5476542E0,1.638169E-1,2.3353264E0,-1.0828233E-1,-1.0828233E-1,-9.491855E-2,-1.0443221E-1,8.3660744E-2,1.9640595E-2,1.5919769E-1,1.7382589E-1,3.159209E-2,-1.5125805E-2,1.783884E-1,1.4974356E-1,7.8253254E-2,1.3931184E-1,1.8321407E-1,1.8321407E-1],"categories":[],"categories_nodes":[],"categories_segments":[],"categories_sizes":[],"default_left":[0,0,0,0,0,0,0,0,0,0,0,0,0,0,0,0,0,0,0,0,0,0,0,0,0,0,0,0,0,0,0,0,0,0,0,0,0,0,0,0,0,0,0],"id":2,"left_children":[1,3,5,7,9,11,13,15,17,-1,-1,19,21,23,25,27,29,-1,-1,31,33,35,-1,37,39,-1,41,-1,-1,-1,-1,-1,-1,-1,-1,-1,-1,-1,-1,-1,-1,-1,-1],"loss_changes":[7.6382964E3,7.8203125E0,3.5165625E2,1.2543945E0,4.408658E0,3.4100677E1,5.984668E1,5.2001953E-1,9.927578E-1,0E0,0E0,5.413864E1,1.891876E0,1.5898804E1,7.685547E-1,4.8828125E-4,1.5325928E-1,0E0,0E0,3.0161469E1,3.2176208E-1,3.0418308E0,0E0,4.8430176E0,1.7001678E1,0E0,2.4414062E-4,0E0,0E0,0E0,0E0,0E0,0E0,0E0,0E0,0E0,0E0,0E0,0E0,0E0,0E0,0E0,0E0],"parents":[2147483647,0,0,1,1,2,2,3,3,4,4,5,5,6,6,7,7,8,8,11,11,12,12,13,13,14,14,15,15,16,16,19,19,20,20,21,21,23,23,24,24,26,26],"right_children":[2,4,6,8,10,12,14,16,18,-1,-1,20,22,24,26,28,30,-1,-1,32,34,36,-1,38,40,-1,42,-1,-1,-1,-1,-1,-1,-1,-1,-1,-1,-1,-1,-1,-1,-1,-1],"split_conditions":[4.7985658E-1,1.5330625E-1,1.2612926E0,-2.3480846E-2,4.6097457E-1,1.2553983E0,1.3053536E0,-4.86361E-1,1.3155542E-1,-3.368132E-2,-1.0121496E-1,1.240063E0,1.2598007E0,1.3019109E0,1.3056028E0,-9.9240255E-1,-4.5149517E-1,-7.56065E-2,-1.0828233E-1,1.2241284E0,1.2506183E0,1.2577245E0,3.7168745E-2,1.2701114E0,1.3031856E0,1.638169E-1,1.305826E0,-1.0828233E-1,-1.0828233E-1,-9.491855E-2,-1.0443221E-1,8.3660744E-2,1.9640595E-2,1.5919769E-1,1.7382589E-1,3.159209E-2,-1.5125805E-2,1.783884E-1,1.4974356E-1,7.8253254E-2,1.3931184E-1,1.8321407E-1,1.8321407E-1],"split_indices":[0,0,0,0,0,0,0,0,0,0,0,0,0,0,0,0,0,0,0,0,0,0,0,0,0,0,0,0,0,0,0,0,0,0,0,0,0,0,0,0,0,0,0],"split_type":[0,0,0,0,0,0,0,0,0,0,0,0,0,0,0,0,0,0,0,0,0,0,0,0,0,0,0,0,0,0,0,0,0,0,0,0,0,0,0,0,0,0,0],"sum_hessian":[3.1302285E3,1.8206727E3,1.3095559E3,1.7964053E3,2.4267414E1,3.2569586E2,9.838601E2,1.7730088E3,2.339652E1,1.3820451E1,1.0446964E1,2.7612802E2,4.956783E1,4.5386206E2,5.2999805E2,1.5915175E3,1.8149129E2,1.3417103E1,9.979417E0,2.3459256E2,4.153547E1,3.6999645E1,1.2568186E1,3.1837726E2,1.354848E2,1.2884182E1,5.1711383E2,9.141146E1,1.500106E3,1.1102144E1,1.7038914E2,1.7326735E2,6.1325207E1,2.7616034E1,1.3919436E1,1.3514154E1,2.3485489E1,4.1822174E1,2.7655508E2,3.9703915E1,9.578089E1,1.4690734E1,5.024231E2],"tree_param":{"num_deleted":"0","num_feature":"1","num_nodes":"43","size_leaf_vector":"1"}},{"base_weights":[-3.6374126E-2,-1.321886E0,1.629202E0,-1.3334148E0,-8.935485E-1,8.2677543E-1,1.8946797E0,-1.341194E0,-1.2653688E0,-7.993209E-1,-9.762575E-2,9.309388E-1,2.3974401E-1,1.6492906E0,2.1062574E0,-1.052211E-1,-1.052211E-1,-1.1602184E0,-1.2796675E0,-1.049212E0,-3.0212568E-2,7.664977E-1,1.8973463E0,6.188236E-2,4.3759272E-1,1.771221E0,1.3650136E0,1.4860317E-1,1.6567606E-1,-9.178382E-2,-9.018549E-2,-1.02206215E-1,-9.346749E-2,-6.470709E-2,-1.0522109E-1,7.603162E-2,1.6449468E-2,1.37404E-1,1.5410729E-1,3.7679292E-2,-3.178964E-2,2.77212E-2,4.0012006E-2,1.6114545E-1,1.3567375E-1,5.299116E-2,1.2071165E-1],"categories":[],"categories_nodes":[],"categories_segments":[],"categories_sizes":[],"default_left":[0,0,0,0,0,0,0,0,0,0,0,0,0,0,0,0,0,0,0,0,0,0,0,0,0,0,0,0,0,0,0,0,0,0,0,0,0,0,0,0,0,0,0,0,0,0,0],"id":3,"left_children":[1,3,5,7,9,11,13,15,17,19,-1,21,23,25,27,-1,-1,29,31,33,-1,35,37,39,41,43,45,-1,-1,-1,-1,-1,-1,-1,-1,-1,-1,-1,-1,-1,-1,-1,-1,-1,-1,-1,-1],"loss_changes":[6.5527837E3,8.530029E0,2.839961E2,8.9038086E-1,1.4966278E0,2.0265213E1,5.2009033E1,2.4414062E-4,2.5942993E-1,3.6940022E0,0E0,4.4730774E1,1.7575383E0,1.6076416E1,6.3012695E-1,0E0,0E0,2.1400452E-3,3.097992E-1,1.4586105E0,0E0,2.7140884E1,4.0003967E-1,5.139879E0,1.4424944E-1,3.8430176E0,1.666864E1,0E0,0E0,0E0,0E0,0E0,0E0,0E0,0E0,0E0,0E0,0E0,0E0,0E0,0E0,0E0,0E0,0E0,0E0,0E0,0E0],"parents":[2147483647,0,0,1,1,2,2,3,3,4,4,5,5,6,6,7,7,8,8,9,9,11,11,12,12,13,13,14,14,17,17,18,18,19,19,21,21,22,22,23,23,24,24,25,25,26,26],"right_children":[2,4,6,8,10,12,14,16,18,20,-1,22,24,26,28,-1,-1,30,32,34,-1,36,38,40,42,44,46,-1,-1,-1,-1,-1,-1,-1,-1,-1,-1,-1,-1,-1,-1,-1,-1,-1,-1,-1,-1],"split_conditions":[4.7985658E-1,-2.3480846E-2,1.2612926E0,-4.86361E-1,4.6097457E-1,1.2553983E0,1.3053536E0,-9.5663446E-1,-4.2042196E-1,1.5330625E-1,-9.762575E-2,1.240063E0,1.2588334E0,1.3019109E0,1.3056028E0,-1.052211E-1,-1.052211E-1,-4.5149517E-1,-2.2611155E-1,1.3155542E-1,-3.0212568E-2,1.2241284E0,1.2450635E0,1.2577245E0,1.2598007E0,1.2701114E0,1.3028111E0,1.4860317E-1,1.6567606E-1,-9.178382E-2,-9.018549E-2,-1.02206215E-1,-9.346749E-2,-6.470709E-2,-1.0522109E-1,7.603162E-2,1.6449468E-2,1.37404E-1,1.5410729E-1,3.7679292E-2,-3.178964E-2,2.77212E-2,4.0012006E-2,1.6114545E-1,1.3567375E-1,5.299116E-2,1.2071165E-1],"split_indices":[0,0,0,0,0,0,0,0,0,0,0,0,0,0,0,0,0,0,0,0,0,0,0,0,0,0,0,0,0,0,0,0,0,0,0,0,0,0,0,0,0,0,0,0,0,0,0],"split_type":[0,0,0,0,0,0,0,0,0,0,0,0,0,0,0,0,0,0,0,0,0,0,0,0,0,0,0,0,0,0,0,0,0,0,0,0,0,0,0,0,0,0,0,0,0,0,0],"sum_hessian":[3.0604504E3,1.7272997E3,1.3331508E3,1.682027E3,4.5272697E1,3.3141714E2,1.00173364E3,1.509462E3,1.7256491E2,3.56876E1,9.585099E0,2.8147244E2,4.994469E1,4.6380737E2,5.379263E2,2.9096692E2,1.2184951E3,2.0656902E1,1.5190802E2,2.2259066E1,1.3428532E1,2.4054245E2,4.0929996E1,2.6300825E1,2.3643864E1,3.2458725E2,1.3922012E2,1.3649259E1,5.24277E2,1.0823401E1,9.833501E0,1.20408134E2,3.149988E1,1.258546E1,9.673607E0,1.763624E2,6.418005E1,1.2875007E1,2.805499E1,1.3873554E1,1.2427271E1,1.0929353E1,1.2714512E1,4.1853115E1,2.8273413E2,2.8003817E1,1.1121631E2],"tree_param":{"num_deleted":"0","num_feature":"1","num_nodes":"47","size_leaf_vector":"1"}},{"base_weights":[-3.944109E-2,-1.2877243E0,1.4925554E0,-1.2996578E0,-8.515536E-1,7.510264E-1,1.7407643E0,-1.0254768E-1,-1.2338313E0,-7.5190544E-1,-9.5001236E-2,8.538494E-1,1.8170883E-1,1.5200301E0,1.9420335E0,-1.1166569E0,-1.2496771E0,-1.0120906E0,-2.4129217E-2,6.9561917E-1,1.7298261E0,3.5191737E-2,4.861984E-2,1.6154351E0,1.3165661E0,1.5235895E-1,1.5235895E-1,-8.839542E-2,-8.6734906E-2,-1.00086205E-1,-9.0095714E-2,-6.289619E-2,-1.0254768E-1,7.327976E-2,1.3684259E-2,1.3173987E-1,1.4407276E-1,2.629849E-2,-1.1103761E-2,1.4814879E-1,1.2347806E-1,5.687502E-2,1.1365974E-1],"categories":[],"categories_nodes":[],"categories_segments":[],"categories_sizes":[],"default_left":[0,0,0,0,0,0,0,0,0,0,0,0,0,0,0,0,0,0,0,0,0,0,0,0,0,0,0,0,0,0,0,0,0,0,0,0,0,0,0,0,0,0,0],"id":4,"left_children":[1,3,5,7,9,11,13,-1,15,17,-1,19,21,23,25,27,29,31,-1,33,35,37,-1,39,41,-1,-1,-1,-1,-1,-1,-1,-1,-1,-1,-1,-1,-1,-1,-1,-1,-1,-1],"loss_changes":[5.698364E3,8.545654E0,2.4623462E2,7.8515625E-1,1.5658646E0,1.9640182E1,4.4530518E1,0E0,3.020172E-1,3.957798E0,0E0,3.9389236E1,3.2939296E0,9.279663E0,1.2207031E-4,2.1648407E-3,3.782959E-1,1.3401527E0,0E0,2.991249E1,2.3454285E-1,2.039211E0,0E0,3.6889038E0,1.1934418E1,0E0,0E0,0E0,0E0,0E0,0E0,0E0,0E0,0E0,0E0,0E0,0E0,0E0,0E0,0E0,0E0,0E0,0E0],"parents":[2147483647,0,0,1,1,2,2,3,3,4,4,5,5,6,6,8,8,9,9,11,11,12,12,13,13,14,14,15,15,16,16,17,17,19,19,20,20,21,21,23,23,24,24],"right_children":[2,4,6,8,10,12,14,-1,16,18,-1,20,22,24,26,28,30,32,-1,34,36,38,-1,40,42,-1,-1,-1,-1,-1,-1,-1,-1,-1,-1,-1,-1,-1,-1,-1,-1,-1,-1],"split_conditions":[4.7985658E-1,-2.3480846E-2,1.2612926E0,-4.86361E-1,4.6097457E-1,1.2553983E0,1.3056028E0,-1.0254768E-1,-4.2042196E-1,1.5330625E-1,-9.5001236E-2,1.240063E0,1.2598007E0,1.3019109E0,1.3098733E0,-4.5149517E-1,-2.2611155E-1,1.3155542E-1,-2.4129217E-2,1.2193501E0,1.2506183E0,1.2577245E0,4.861984E-2,1.2701114E0,1.3028111E0,1.5235895E-1,1.5235895E-1,-8.839542E-2,-8.6734906E-2,-1.00086205E-1,-9.0095714E-2,-6.289619E-2,-1.0254768E-1,7.327976E-2,1.3684259E-2,1.3173987E-1,1.4407276E-1,2.629849E-2,-1.1103761E-2,1.4814879E-1,1.2347806E-1,5.687502E-2,1.1365974E-1],"split_indices":[0,0,0,0,0,0,0,0,0,0,0,0,0,0,0,0,0,0,0,0,0,0,0,0,0,0,0,0,0,0,0,0,0,0,0,0,0,0,0,0,0,0,0],"split_type":[0,0,0,0,0,0,0,0,0,0,0,0,0,0,0,0,0,0,0,0,0,0,0,0,0,0,0,0,0,0,0,0,0,0,0,0,0,0,0,0,0,0,0],"sum_hessian":[2.979746E3,1.6419069E3,1.3378391E3,1.598181E3,4.3725918E1,3.3550653E2,1.0023326E3,1.4355046E3,1.6267635E2,3.4233543E1,9.492376E0,2.8418127E2,5.132526E1,4.7805008E2,5.242825E2,1.937851E1,1.4329784E2,2.1590973E1,1.2642569E1,2.4070247E2,4.347879E1,3.846035E1,1.286491E1,3.2544687E2,1.526032E2,3.1047314E2,2.1380934E2,1.0159076E1,9.219433E0,1.1396679E2,2.9331053E1,1.2603339E1,8.987633E0,1.6514957E2,7.555291E1,2.9480324E1,1.3998467E1,1.4256897E1,2.4203455E1,4.2980373E1,2.824665E2,2.7870417E1,1.2473279E2],"tree_param":{"num_deleted":"0","num_feature":"1","num_nodes":"43","size_leaf_vector":"1"}},{"base_weights":[-3.6187418E-2,-1.2318712E0,1.4060051E0,-1.2653289E0,-2.4220997E-1,7.3076195E-1,1.6129756E0,-1.2716409E0,-1.0743827E0,-6.349299E-1,5.1936373E-2,1.8089435E0,5.6697226E-1,1.3918853E0,1.8043282E0,-1.2771844E0,-1.2125123E0,-1.0317993E0,-1.00199334E-1,-2.0610506E-2,-9.232033E-2,7.555459E-2,-5.7508197E-2,4.0345795E-2,1.8445621E-1,-9.2737526E-2,7.389914E-1,1.4889411E0,1.1612225E0,1.2878837E-1,1.8089054E0,-1.00199334E-1,-1.00199334E-1,-8.4873155E-2,-9.689431E-2,-8.787102E-2,-6.3045375E-2,4.711221E-3,-4.8406698E-2,1.2542665E-1,4.103417E-2,1.081977E-1,1.2471584E-1,5.1592715E-2,1.0736257E-1,1.419146E-1,1.419146E-1],"categories":[],"categories_nodes":[],"categories_segments":[],"categories_sizes":[],"default_left":[0,0,0,0,0,0,0,0,0,0,0,0,0,0,0,0,0,0,0,0,0,0,0,0,0,0,0,0,0,0,0,0,0,0,0,0,0,0,0,0,0,0,0,0,0,0,0],"id":5,"left_children":[1,3,5,7,9,11,13,15,17,19,21,23,25,27,29,31,33,35,-1,-1,-1,-1,-1,-1,-1,37,39,41,43,-1,45,-1,-1,-1,-1,-1,-1,-1,-1,-1,-1,-1,-1,-1,-1,-1,-1],"loss_changes":[4.9890605E3,5.2375732E1,1.8327759E2,1.8442383E0,5.975353E0,5.4331787E1,4.2465332E1,4.8535156E-1,4.228096E-1,4.4675217E0,2.1151896E1,2.8482925E1,3.0309982E1,1.0425476E1,4.0075684E-1,2.4414062E-4,3.7402344E-1,8.1479645E-1,0E0,0E0,0E0,0E0,0E0,0E0,0E0,4.424884E0,3.9333008E1,3.6258545E0,1.4395782E1,0E0,1.2207031E-4,0E0,0E0,0E0,0E0,0E0,0E0,0E0,0E0,0E0,0E0,0E0,0E0,0E0,0E0,0E0,0E0],"parents":[2147483647,0,0,1,1,2,2,3,3,4,4,5,5,6,6,7,7,8,8,9,9,10,10,11,11,12,12,13,13,14,14,15,15,16,16,17,17,25,25,26,26,27,27,28,28,30,30],"right_children":[2,4,6,8,10,12,14,16,18,20,22,24,26,28,30,32,34,36,-1,-1,-1,-1,-1,-1,-1,38,40,42,44,-1,46,-1,-1,-1,-1,-1,-1,-1,-1,-1,-1,-1,-1,-1,-1,-1,-1],"split_conditions":[8.2254535E-1,1.5330625E-1,1.2612926E0,-2.2611155E-1,4.7985658E-1,1.1139044E0,1.3053536E0,-4.86361E-1,1.3155542E-1,4.6097457E-1,7.602567E-1,9.4117E-1,1.1739142E0,1.3019109E0,1.3056028E0,-9.9240255E-1,-4.2042196E-1,-2.3480846E-2,-1.00199334E-1,-2.0610506E-2,-9.232033E-2,7.555459E-2,-5.7508197E-2,4.0345795E-2,1.8445621E-1,1.1698295E0,1.2193501E0,1.2851579E0,1.3031856E0,1.2878837E-1,1.3101262E0,-1.00199334E-1,-1.00199334E-1,-8.4873155E-2,-9.689431E-2,-8.787102E-2,-6.3045375E-2,4.711221E-3,-4.8406698E-2,1.2542665E-1,4.103417E-2,1.081977E-1,1.2471584E-1,5.1592715E-2,1.0736257E-1,1.419146E-1,1.419146E-1],"split_indices":[0,0,0,0,0,0,0,0,0,0,0,0,0,0,0,0,0,0,0,0,0,0,0,0,0,0,0,0,0,0,0,0,0,0,0,0,0,0,0,0,0,0,0,0,0,0,0],"split_type":[0,0,0,0,0,0,0,0,0,0,0,0,0,0,0,0,0,0,0,0,0,0,0,0,0,0,0,0,0,0,0,0,0,0,0,0,0,0,0,0,0,0,0,0,0,0,0],"sum_hessian":[2.8932046E3,1.5817869E3,1.3114178E3,1.5300599E3,5.1726974E1,3.0766324E2,1.0037546E3,1.4811001E3,4.8959747E1,2.2151766E1,2.957521E1,4.0574257E1,2.6708896E2,4.6569128E2,5.380633E2,1.3541454E3,1.2695473E2,4.0463413E1,8.496334E0,1.3131072E1,9.020694E0,1.36877E1,1.5887509E1,1.1976738E1,2.8597517E1,5.523965E1,2.1184932E2,3.27774E2,1.3791728E2,1.4719739E1,5.2334357E2,7.765648E1,1.2764889E3,1.8679413E1,1.08275314E2,2.9179655E1,1.1283761E1,4.2774063E1,1.2465585E1,4.252964E1,1.6931969E2,1.5683119E2,1.709428E2,4.021257E1,9.770471E1,4.10863E2,1.12480545E2],"tree_param":{"num_deleted":"0","num_feature":"1","num_nodes":"47","size_leaf_vector":"1"}},{"base_weights":[-3.1867877E-2,-1.2302222E0,1.2852703E0,-1.239646E0,-5.9423965E-1,6.3468814E-1,1.5086023E0,-1.2456338E0,-1.056682E0,-1.773372E-2,-8.98614E-2,7.2929054E-1,1.0430668E-1,1.2975813E0,1.69687E0,-1.2507569E0,-1.191399E0,-1.0144112E0,-9.8125994E-2,5.8926564E-1,1.552178E0,2.5456883E-2,2.1749305E-2,1.3886852E0,1.0910462E0,1.18350215E-1,1.7018834E0,-9.812601E-2,-9.812601E-2,-8.249619E-2,-9.5414594E-2,-8.759593E-2,-6.0076248E-2,5.972372E-2,7.7135745E-3,1.1445874E-1,1.366353E-1,-3.0225294E-2,1.7133636E-2,1.328735E-1,1.0540663E-1,5.3084496E-2,9.953338E-2,1.3351837E-1,1.3351838E-1],"categories":[],"categories_nodes":[],"categories_segments":[],"categories_sizes":[],"default_left":[0,0,0,0,0,0,0,0,0,0,0,0,0,0,0,0,0,0,0,0,0,0,0,0,0,0,0,0,0,0,0,0,0,0,0,0,0,0,0,0,0,0,0,0,0],"id":6,"left_children":[1,3,5,7,9,11,13,15,17,-1,-1,19,21,23,25,27,29,31,-1,33,35,-1,37,39,41,-1,43,-1,-1,-1,-1,-1,-1,-1,-1,-1,-1,-1,-1,-1,-1,-1,-1,-1,-1],"loss_changes":[4.41221E3,8.772217E0,1.9348828E2,1.5800781E0,4.3371525E0,1.7075546E1,3.9385498E1,3.8793945E-1,3.7496567E-1,0E0,0E0,3.327739E1,9.363686E-1,8.795471E0,4.946289E-1,3.6621094E-4,4.180298E-1,9.5308304E-1,0E0,2.0840858E1,7.417679E-1,0E0,2.99859E0,4.4639893E0,1.0533279E1,0E0,1.2207031E-4,0E0,0E0,0E0,0E0,0E0,0E0,0E0,0E0,0E0,0E0,0E0,0E0,0E0,0E0,0E0,0E0,0E0,0E0],"parents":[2147483647,0,0,1,1,2,2,3,3,4,4,5,5,6,6,7,7,8,8,11,11,12,12,13,13,14,14,15,15,16,16,17,17,19,19,20,20,22,22,23,23,24,24,26,26],"right_children":[2,4,6,8,10,12,14,16,18,-1,-1,20,22,24,26,28,30,32,-1,34,36,-1,38,40,42,-1,44,-1,-1,-1,-1,-1,-1,-1,-1,-1,-1,-1,-1,-1,-1,-1,-1,-1,-1],"split_conditions":[4.7985658E-1,1.5330625E-1,1.2612926E0,-2.2611155E-1,4.6097457E-1,1.2553983E0,1.3053536E0,-4.86361E-1,1.3155542E-1,-1.773372E-2,-8.98614E-2,1.240063E0,1.2577245E0,1.3019109E0,1.3056028E0,-8.6842066E-1,-4.2042196E-1,-2.3480846E-2,-9.8125994E-2,1.2241284E0,1.2506183E0,2.5456883E-2,1.2588334E0,1.2701114E0,1.3031856E0,1.18350215E-1,1.305826E0,-9.812601E-2,-9.812601E-2,-8.249619E-2,-9.5414594E-2,-8.759593E-2,-6.0076248E-2,5.972372E-2,7.7135745E-3,1.1445874E-1,1.366353E-1,-3.0225294E-2,1.7133636E-2,1.328735E-1,1.0540663E-1,5.3084496E-2,9.953338E-2,1.3351837E-1,1.3351838E-1],"split_indices":[0,0,0,0,0,0,0,0,0,0,0,0,0,0,0,0,0,0,0,0,0,0,0,0,0,0,0,0,0,0,0,0,0,0,0,0,0,0,0,0,0,0,0,0,0],"split_type":[0,0,0,0,0,0,0,0,0,0,0,0,0,0,0,0,0,0,0,0,0,0,0,0,0,0,0,0,0,0,0,0,0,0,0,0,0,0,0,0,0,0,0,0,0],"sum_hessian":[2.7953716E3,1.4636858E3,1.3316858E3,1.4423142E3,2.1371527E1,3.4031723E2,9.913686E2,1.3966072E3,4.5707123E1,1.2812466E1,8.559061E0,2.8880417E2,5.1513065E1,4.6743796E2,5.2393066E2,1.2760702E3,1.2053699E2,3.7532326E1,8.174799E0,2.468068E2,4.199736E1,1.4047865E1,3.74652E1,3.2436047E2,1.4307747E2,1.3585792E1,5.1034485E2,6.0156903E2,6.745011E2,1.8151903E1,1.02385086E2,2.6605242E1,1.0927084E1,1.8277348E2,6.403331E1,2.8144896E1,1.3852465E1,1.2204415E1,2.5260784E1,4.1808098E1,2.825524E2,4.2931038E1,1.0014642E2,1.33280945E1,4.9701675E2],"tree_param":{"num_deleted":"0","num_feature":"1","num_nodes":"45","size_leaf_vector":"1"}},{"base_weights":[-4.2320378E-2,-1.2043897E0,1.1861354E0,-1.218626E0,-7.272986E-1,5.60333E-1,1.4082805E0,-1.2273197E0,-1.1441827E0,-6.257033E-1,-8.776881E-2,6.5759873E-1,7.480622E-3,1.1874063E0,1.6089234E0,-9.628727E-2,-9.628729E-2,-1.1649133E0,-1.0537012E0,-9.0698624E-1,-1.49816265E-2,5.253972E-1,1.4342506E0,-9.114029E-2,2.1842128E-2,1.2823828E0,9.719916E-1,1.1135687E-1,1.614156E0,-8.9039534E-2,-9.665714E-2,-7.602803E-2,-9.763506E-2,-5.4541606E-2,-9.628727E-2,7.557204E-2,2.7768385E-2,1.0776865E-1,1.2260512E-1,1.125042E-2,-1.7640233E-2,1.23688705E-1,9.717889E-2,5.0504718E-2,8.746435E-2,1.2663586E-1,1.2663586E-1],"categories":[],"categories_nodes":[],"categories_segments":[],"categories_sizes":[],"default_left":[0,0,0,0,0,0,0,0,0,0,0,0,0,0,0,0,0,0,0,0,0,0,0,0,0,0,0,0,0,0,0,0,0,0,0,0,0,0,0,0,0,0,0,0,0,0,0],"id":7,"left_children":[1,3,5,7,9,11,13,15,17,19,-1,21,23,25,27,-1,-1,29,31,33,-1,35,37,39,-1,41,43,-1,45,-1,-1,-1,-1,-1,-1,-1,-1,-1,-1,-1,-1,-1,-1,-1,-1,-1,-1],"loss_changes":[3.8461355E3,9.403809E0,1.8207312E2,8.699951E-1,1.5953884E0,1.8450516E1,4.283606E1,1.2207031E-4,2.637024E-1,3.8948278E0,0E0,2.9958466E1,1.3716112E0,9.41333E0,5.0219727E-1,0E0,0E0,2.3013306E-1,4.2307472E-1,1.3118782E0,0E0,1.871875E1,3.3048248E-1,1.1802531E0,0E0,4.1051025E0,6.6019897E0,0E0,1.2207031E-4,0E0,0E0,0E0,0E0,0E0,0E0,0E0,0E0,0E0,0E0,0E0,0E0,0E0,0E0,0E0,0E0,0E0,0E0],"parents":[2147483647,0,0,1,1,2,2,3,3,4,4,5,5,6,6,7,7,8,8,9,9,11,11,12,12,13,13,14,14,17,17,18,18,19,19,21,21,22,22,23,23,25,25,26,26,28,28],"right_children":[2,4,6,8,10,12,14,16,18,20,-1,22,24,26,28,-1,-1,30,32,34,-1,36,38,40,-1,42,44,-1,46,-1,-1,-1,-1,-1,-1,-1,-1,-1,-1,-1,-1,-1,-1,-1,-1,-1,-1],"split_conditions":[4.7985658E-1,-2.3480846E-2,1.2612926E0,-4.86361E-1,4.6097457E-1,1.2553983E0,1.3053536E0,-1.0068138E0,-2.2611155E-1,1.5330625E-1,-8.776881E-2,1.240063E0,1.2598007E0,1.3019109E0,1.3056028E0,-9.628727E-2,-9.628729E-2,-3.2073358E-1,-5.9278715E-2,1.3155542E-1,-1.49816265E-2,1.1139044E0,1.2506183E0,1.2577245E0,2.1842128E-2,1.2701114E0,1.3031856E0,1.1135687E-1,1.305826E0,-8.9039534E-2,-9.665714E-2,-7.602803E-2,-9.763506E-2,-5.4541606E-2,-9.628727E-2,7.557204E-2,2.7768385E-2,1.0776865E-1,1.2260512E-1,1.125042E-2,-1.7640233E-2,1.23688705E-1,9.717889E-2,5.0504718E-2,8.746435E-2,1.2663586E-1,1.2663586E-1],"split_indices":[0,0,0,0,0,0,0,0,0,0,0,0,0,0,0,0,0,0,0,0,0,0,0,0,0,0,0,0,0,0,0,0,0,0,0,0,0,0,0,0,0,0,0,0,0,0,0],"split_type":[0,0,0,0,0,0,0,0,0,0,0,0,0,0,0,0,0,0,0,0,0,0,0,0,0,0,0,0,0,0,0,0,0,0,0,0,0,0,0,0,0,0,0,0,0,0,0],"sum_hessian":[2.6942197E3,1.38452E3,1.3096998E3,1.3444032E3,4.011684E1,3.431149E2,9.665849E2,1.2038191E3,1.405841E2,3.185034E1,8.266499E0,2.9178067E2,5.1334236E1,4.6009616E2,5.064887E2,8.451031E0,1.195368E3,1.1437838E2,2.6205725E1,1.9338245E1,1.25120945E1,2.4933833E2,4.2442326E1,3.7634777E1,1.3699459E1,3.1931146E2,1.407847E2,1.3608118E1,4.9288058E2,7.90667E1,3.5311676E1,1.8154568E1,8.051156E0,1.1641771E1,7.696475E0,7.01576E1,1.7918073E2,2.8845402E1,1.3596925E1,1.3664901E1,2.3969875E1,4.1293694E1,2.780178E2,4.2694458E1,9.809024E1,1.3671485E1,4.792091E2],"tree_param":{"num_deleted":"0","num_feature":"1","num_nodes":"47","size_leaf_vector":"1"}},{"base_weights":[-3.5968628E-2,-1.1844648E0,1.1170588E0,-1.1972103E0,-7.5052077E-1,5.21516E-1,1.3328626E0,-1.2064524E0,-1.1178213E0,-6.70579E-1,-8.483337E-2,5.955797E-1,9.008023E-2,1.1148627E0,1.5356642E0,-1.2064524E0,-9.465017E-2,-9.8247886E-1,-1.136795E0,-8.55595E-1,-3.1595815E-2,4.6934944E-1,1.3513161E0,2.489638E-2,3.5951897E-3,1.2087423E0,9.079858E-1,1.05368644E-1,1.5411049E0,-9.465017E-2,-9.465017E-2,-7.796684E-2,-7.610244E-2,-9.323339E-2,-8.688895E-2,-4.872825E-2,-9.465017E-2,4.8890695E-2,2.9535787E-3,9.624607E-2,1.1105288E-1,-2.5482422E-2,1.2481564E-2,1.1752086E-1,9.157421E-2,4.1897535E-2,8.386035E-2,1.2090476E-1,1.20904766E-1],"categories":[],"categories_nodes":[],"categories_segments":[],"categories_sizes":[],"default_left":[0,0,0,0,0,0,0,0,0,0,0,0,0,0,0,0,0,0,0,0,0,0,0,0,0,0,0,0,0,0,0,0,0,0,0,0,0,0,0,0,0,0,0,0,0,0,0,0,0],"id":8,"left_children":[1,3,5,7,9,11,13,15,17,19,-1,21,23,25,27,29,-1,31,33,35,-1,37,39,-1,41,43,45,-1,47,-1,-1,-1,-1,-1,-1,-1,-1,-1,-1,-1,-1,-1,-1,-1,-1,-1,-1,-1,-1],"loss_changes":[3.443052E3,7.2043457E0,1.6674805E2,9.2822266E-1,9.828625E-1,1.10271225E1,4.210388E1,2.4414062E-4,3.3885193E-1,1.4833384E0,0E0,2.8097687E1,9.9377847E-1,8.914001E0,5.169678E-1,3.0517578E-5,0E0,2.2859573E-3,1.7477417E-1,1.4564962E0,0E0,1.676052E1,3.3706665E-1,0E0,1.8703078E0,3.789215E0,8.621826E0,0E0,1.2207031E-4,0E0,0E0,0E0,0E0,0E0,0E0,0E0,0E0,0E0,0E0,0E0,0E0,0E0,0E0,0E0,0E0,0E0,0E0,0E0,0E0],"parents":[2147483647,0,0,1,1,2,2,3,3,4,4,5,5,6,6,7,7,8,8,9,9,11,11,12,12,13,13,14,14,15,15,17,17,18,18,19,19,21,21,22,22,24,24,25,25,26,26,28,28],"right_children":[2,4,6,8,10,12,14,16,18,20,-1,22,24,26,28,30,-1,32,34,36,-1,38,40,-1,42,44,46,-1,48,-1,-1,-1,-1,-1,-1,-1,-1,-1,-1,-1,-1,-1,-1,-1,-1,-1,-1,-1,-1],"split_conditions":[4.7985658E-1,-2.3480846E-2,1.2612926E0,-4.86361E-1,4.6097457E-1,1.2553983E0,1.3053536E0,-9.6441704E-1,-4.2042196E-1,1.5330625E-1,-8.483337E-2,1.240063E0,1.2577245E0,1.3019109E0,1.3056028E0,-1.0068138E0,-9.465017E-2,-4.5149517E-1,-3.606176E-1,1.3155542E-1,-3.1595815E-2,1.2241284E0,1.2450635E0,2.489638E-2,1.2588334E0,1.2701114E0,1.3031856E0,1.05368644E-1,1.305826E0,-9.465017E-2,-9.465017E-2,-7.796684E-2,-7.610244E-2,-9.323339E-2,-8.688895E-2,-4.872825E-2,-9.465017E-2,4.8890695E-2,2.9535787E-3,9.624607E-2,1.1105288E-1,-2.5482422E-2,1.2481564E-2,1.1752086E-1,9.157421E-2,4.1897535E-2,8.386035E-2,1.2090476E-1,1.20904766E-1],"split_indices":[0,0,0,0,0,0,0,0,0,0,0,0,0,0,0,0,0,0,0,0,0,0,0,0,0,0,0,0,0,0,0,0,0,0,0,0,0,0,0,0,0,0,0,0,0,0,0,0,0],"split_type":[0,0,0,0,0,0,0,0,0,0,0,0,0,0,0,0,0,0,0,0,0,0,0,0,0,0,0,0,0,0,0,0,0,0,0,0,0,0,0,0,0,0,0,0,0,0,0,0,0],"sum_hessian":[2.6000063E3,1.3025625E3,1.2974437E3,1.2653961E3,3.7166386E1,3.450972E2,9.5234656E2,1.1334457E3,1.3195049E2,2.9932817E1,7.2335687E0,2.9453503E2,5.056218E1,4.5897498E2,4.9337155E2,1.700665E2,9.6337915E2,1.622377E1,1.1572671E2,1.7703789E1,1.2229027E1,2.5238013E2,4.2154903E1,1.3937667E1,3.662451E1,3.1570828E2,1.4326668E2,1.3554818E1,4.7981674E2,8.510417E0,1.6155608E2,8.495382E0,7.728389E0,4.1887444E1,7.383927E1,1.06117735E1,7.0920153E0,1.8607439E2,6.630575E1,1.4342211E1,2.781269E1,1.1769077E1,2.4855436E1,3.961303E1,2.7609528E2,4.3106407E1,1.0016026E2,1.207516E1,4.6774158E2],"tree_param":{"num_deleted":"0","num_feature":"1","num_nodes":"49","size_leaf_vector":"1"}},{"base_weights":[-3.9072696E-2,-1.1645235E0,1.0513474E0,-1.1787578E0,-7.21995E-1,4.7353682E-1,1.2606434E0,-1.1878079E0,-1.1023575E0,-6.3612413E-1,-8.3876684E-2,8.513008E-1,3.771791E-1,1.0397584E0,1.4736016E0,-9.318745E-2,-1.1878079E0,-1.1185627E0,-1.0280136E0,-8.990557E-1,-2.080859E-2,1.4055765E-1,1.517726E-1,-2.088259E-1,5.3394324E-1,1.1350513E0,8.3080626E-1,9.933008E-2,1.4794829E0,-9.318745E-2,-9.318745E-2,-8.525371E-2,-9.360461E-2,-7.5252086E-2,-9.440293E-2,-5.524997E-2,-9.3187444E-2,6.964667E-2,-1.6071223E-2,-6.3536232E-3,-5.0303113E-2,9.9046454E-2,2.6905313E-2,1.12318724E-1,8.57939E-2,3.2082394E-2,7.3841706E-2,1.1607031E-1,1.16070315E-1],"categories":[],"categories_nodes":[],"categories_segments":[],"categories_sizes":[],"default_left":[0,0,0,0,0,0,0,0,0,0,0,0,0,0,0,0,0,0,0,0,0,0,0,0,0,0,0,0,0,0,0,0,0,0,0,0,0,0,0,0,0,0,0,0,0,0,0,0,0],"id":9,"left_children":[1,3,5,7,9,11,13,15,17,19,-1,21,23,25,27,-1,29,31,33,35,-1,37,-1,39,41,43,45,-1,47,-1,-1,-1,-1,-1,-1,-1,-1,-1,-1,-1,-1,-1,-1,-1,-1,-1,-1,-1,-1],"loss_changes":[3.0436238E3,7.687744E0,1.5233484E2,8.173828E-1,1.1337299E0,1.2192345E1,4.349768E1,1.2207031E-4,1.5089417E-1,2.9734325E0,0E0,5.241091E1,2.4516525E1,9.037994E0,5.744629E-1,0E0,1.2207031E-4,2.4440002E-1,2.7035332E-1,1.003685E0,0E0,1.0608396E1,0E0,3.1132567E0,2.929816E1,3.8359375E0,6.622154E0,0E0,1.2207031E-4,0E0,0E0,0E0,0E0,0E0,0E0,0E0,0E0,0E0,0E0,0E0,0E0,0E0,0E0,0E0,0E0,0E0,0E0,0E0,0E0],"parents":[2147483647,0,0,1,1,2,2,3,3,4,4,5,5,6,6,7,7,8,8,9,9,11,11,12,12,13,13,14,14,16,16,17,17,18,18,19,19,21,21,23,23,24,24,25,25,26,26,28,28],"right_children":[2,4,6,8,10,12,14,16,18,20,-1,22,24,26,28,-1,30,32,34,36,-1,38,-1,40,42,44,46,-1,48,-1,-1,-1,-1,-1,-1,-1,-1,-1,-1,-1,-1,-1,-1,-1,-1,-1,-1,-1,-1],"split_conditions":[4.7985658E-1,-2.3480846E-2,1.2612926E0,-4.86361E-1,4.6097457E-1,1.1139044E0,1.3053536E0,-1.005705E0,-2.2611155E-1,1.5330625E-1,-8.3876684E-2,9.4117E-1,1.1739142E0,1.3019109E0,1.3056028E0,-9.318745E-2,-9.843302E-1,-3.2073358E-1,-5.9278715E-2,1.3155542E-1,-2.080859E-2,7.602567E-1,1.517726E-1,1.1698295E0,1.2193501E0,1.2701114E0,1.3028111E0,9.933008E-2,1.305826E0,-9.318745E-2,-9.318745E-2,-8.525371E-2,-9.360461E-2,-7.5252086E-2,-9.440293E-2,-5.524997E-2,-9.3187444E-2,6.964667E-2,-1.6071223E-2,-6.3536232E-3,-5.0303113E-2,9.9046454E-2,2.6905313E-2,1.12318724E-1,8.57939E-2,3.2082394E-2,7.3841706E-2,1.1607031E-1,1.16070315E-1],"split_indices":[0,0,0,0,0,0,0,0,0,0,0,0,0,0,0,0,0,0,0,0,0,0,0,0,0,0,0,0,0,0,0,0,0,0,0,0,0,0,0,0,0,0,0,0,0,0,0,0,0],"split_type":[0,0,0,0,0,0,0,0,0,0,0,0,0,0,0,0,0,0,0,0,0,0,0,0,0,0,0,0,0,0,0,0,0,0,0,0,0,0,0,0,0,0,0,0,0,0,0,0,0],"sum_hessian":[2.4801084E3,1.2204501E3,1.2596582E3,1.1824165E3,3.8033585E1,3.3495004E2,9.247081E2,1.057186E3,1.25230515E2,3.0490993E1,7.542592E0,6.8073296E1,2.6687677E2,4.5390646E2,4.7080164E2,1.5174919E1,1.0420111E3,1.0281854E2,2.241197E1,1.7842228E1,1.26487665E1,4.1104195E1,2.6969105E1,5.632532E1,2.1055144E2,3.1173807E2,1.421684E2,1.297664E1,4.57825E2,8.9851494E1,9.521596E2,7.202267E1,3.0795881E1,1.6093622E1,6.3183475E0,1.0654107E1,7.1881204E0,1.2994478E1,2.8109715E1,4.3471645E1,1.2853676E1,4.3733234E1,1.668182E2,3.82506E1,2.7348746E2,2.9490255E1,1.1267814E2,1.2048026E1,4.4577698E2],"tree_param":{"num_deleted":"0","num_feature":"1","num_nodes":"49","size_leaf_vector":"1"}},{"base_weights":[-3.4442525E-2,-1.1186472E0,1.01921E0,-1.1551425E0,-2.7525055E-1,4.8154098E-1,1.2055422E0,-1.164453E0,-8.9674044E-1,-5.6238502E-2,-5.7858717E-2,1.3490031E0,3.5159776E-1,9.9149543E-1,1.4269377E0,-9.187645E-2,-1.0937573E0,-8.4203285E-1,-9.187645E-2,-5.189781E-1,4.6277884E-2,2.6136523E-2,1.4144805E-1,-1.936507E-1,4.95291E-1,1.0902463E0,7.9572326E-1,1.11947976E-1,1.11947976E-1,-7.0725046E-2,-8.840055E-2,-7.54777E-2,-4.667266E-2,-1.7977478E-2,-8.1573494E-2,-5.644068E-3,-4.934684E-2,9.43878E-2,2.5262957E-2,1.10003375E-1,8.209877E-2,2.4174854E-2,7.1629845E-2],"categories":[],"categories_nodes":[],"categories_segments":[],"categories_sizes":[],"default_left":[0,0,0,0,0,0,0,0,0,0,0,0,0,0,0,0,0,0,0,0,0,0,0,0,0,0,0,0,0,0,0,0,0,0,0,0,0,0,0,0,0,0,0],"id":10,"left_children":[1,3,5,7,9,11,13,15,17,19,-1,21,23,25,27,-1,29,31,-1,33,-1,-1,-1,35,37,39,41,-1,-1,-1,-1,-1,-1,-1,-1,-1,-1,-1,-1,-1,-1,-1,-1],"loss_changes":[2.7131592E3,3.6029175E1,1.206709E2,2.6993408E0,4.91508E0,3.4942337E1,4.2388916E1,5.0878906E-1,5.856724E-1,9.849204E0,0E0,1.862407E1,2.1123085E1,8.792358E0,6.1035156E-5,0E0,5.909195E-1,9.6507835E-1,0E0,2.8973227E0,0E0,0E0,0E0,2.9794567E0,2.6170006E1,4.1279907E0,8.721397E0,0E0,0E0,0E0,0E0,0E0,0E0,0E0,0E0,0E0,0E0,0E0,0E0,0E0,0E0,0E0,0E0],"parents":[2147483647,0,0,1,1,2,2,3,3,4,4,5,5,6,6,7,7,8,8,9,9,11,11,12,12,13,13,14,14,16,16,17,17,19,19,23,23,24,24,25,25,26,26],"right_children":[2,4,6,8,10,12,14,16,18,20,-1,22,24,26,28,-1,30,32,-1,34,-1,-1,-1,36,38,40,42,-1,-1,-1,-1,-1,-1,-1,-1,-1,-1,-1,-1,-1,-1,-1,-1],"split_conditions":[8.2254535E-1,1.5330625E-1,1.2612926E0,-2.2611155E-1,7.602567E-1,1.1139044E0,1.3056028E0,-4.86361E-1,1.3155542E-1,4.7985658E-1,-5.7858717E-2,9.4117E-1,1.1739142E0,1.3019109E0,1.3063971E0,-9.187645E-2,-4.2042196E-1,-2.3480846E-2,-9.187645E-2,4.6097457E-1,4.6277884E-2,2.6136523E-2,1.4144805E-1,1.1698295E0,1.2193501E0,1.2701114E0,1.3028111E0,1.11947976E-1,1.11947976E-1,-7.0725046E-2,-8.840055E-2,-7.54777E-2,-4.667266E-2,-1.7977478E-2,-8.1573494E-2,-5.644068E-3,-4.934684E-2,9.43878E-2,2.5262957E-2,1.10003375E-1,8.209877E-2,2.4174854E-2,7.1629845E-2],"split_indices":[0,0,0,0,0,0,0,0,0,0,0,0,0,0,0,0,0,0,0,0,0,0,0,0,0,0,0,0,0,0,0,0,0,0,0,0,0,0,0,0,0,0,0],"split_type":[0,0,0,0,0,0,0,0,0,0,0,0,0,0,0,0,0,0,0,0,0,0,0,0,0,0,0,0,0,0,0,0,0,0,0,0,0,0,0,0,0,0,0],"sum_hessian":[2.3750164E3,1.1705375E3,1.2044789E3,1.121987E3,4.855045E1,3.0999002E2,8.9448883E2,1.0829664E3,3.9020584E1,3.2942272E1,1.5608179E1,4.0385883E1,2.6960413E2,4.5479242E2,4.396964E2,9.899292E2,9.30373E1,3.2533337E1,6.4872494E0,1.9195047E1,1.3747223E1,1.2473298E1,2.7912586E1,5.6231598E1,2.1337253E2,3.023047E2,1.5248775E2,3.5855072E1,4.0384134E2,1.3641639E1,7.939566E1,2.1896976E1,1.0636359E1,1.2332065E1,6.8629827E0,4.3945747E1,1.2285849E1,4.1962357E1,1.7141017E2,3.7209423E1,2.6509525E2,2.9571241E1,1.2291651E2],"tree_param":{"num_deleted":"0","num_feature":"1","num_nodes":"43","size_leaf_vector":"1"}},{"base_weights":[-3.5667494E-2,-1.1297339E0,9.4118744E-1,-1.14901E0,-7.70536E-1,4.1726083E-1,1.1503589E0,-1.156078E0,-1.0741233E0,-9.097929E-1,-5.13398E-1,4.7520182E-1,-4.381721E-2,9.3351686E-1,1.08400576E-1,-9.069814E-2,-9.069814E-2,-8.7970954E-1,-1.1086338E0,-5.1803593E-2,-9.5838994E-1,-1.9477094E-2,-7.999249E-2,3.727911E-1,9.6245813E-1,-3.6624834E-2,1.5650211E-1,1.0164948E0,7.684295E-1,-6.854087E-2,-6.947304E-2,-8.361735E-2,-9.112676E-2,-7.139534E-2,-9.069814E-2,5.694721E-2,1.858283E-2,9.571509E-2,2.1439852E-2,-3.557828E-3,2.5958825E-2,1.03770144E-1,7.651887E-2,3.5801586E-2,7.016062E-2],"categories":[],"categories_nodes":[],"categories_segments":[],"categories_sizes":[],"default_left":[0,0,0,0,0,0,0,0,0,0,0,0,0,0,0,0,0,0,0,0,0,0,0,0,0,0,0,0,0,0,0,0,0,0,0,0,0,0,0,0,0,0,0,0,0],"id":11,"left_children":[1,3,5,7,9,11,13,15,17,19,21,23,25,27,-1,-1,-1,29,31,-1,33,-1,-1,35,37,-1,39,41,43,-1,-1,-1,-1,-1,-1,-1,-1,-1,-1,-1,-1,-1,-1,-1,-1],"loss_changes":[2.434418E3,7.439453E0,1.3187854E2,5.397949E-1,1.9595337E0,9.172806E0,4.3146484E1,1.2207031E-4,5.900574E-1,4.3038177E-1,2.5802689E0,1.5220741E1,3.2480826E0,6.08136E0,0E0,0E0,0E0,4.682541E-4,1.6915894E-1,0E0,2.8400612E-1,0E0,0E0,1.2096607E1,9.403603E0,0E0,9.156102E-1,3.7228394E0,5.8333054E0,0E0,0E0,0E0,0E0,0E0,0E0,0E0,0E0,0E0,0E0,0E0,0E0,0E0,0E0,0E0,0E0],"parents":[2147483647,0,0,1,1,2,2,3,3,4,4,5,5,6,6,7,7,8,8,9,9,10,10,11,11,12,12,13,13,17,17,18,18,20,20,23,23,24,24,26,26,27,27,28,28],"right_children":[2,4,6,8,10,12,14,16,18,20,22,24,26,28,-1,-1,-1,30,32,-1,34,-1,-1,36,38,-1,40,42,44,-1,-1,-1,-1,-1,-1,-1,-1,-1,-1,-1,-1,-1,-1,-1,-1],"split_conditions":[4.7985658E-1,-2.2611155E-1,1.2612926E0,-4.86361E-1,1.5330625E-1,1.2577245E0,1.3056028E0,-5.214657E-1,-4.2042196E-1,-9.661228E-2,4.6097457E-1,1.240063E0,1.2588334E0,1.3019109E0,1.08400576E-1,-9.069814E-2,-9.069814E-2,-4.5149517E-1,-3.4142187E-1,-5.1803593E-2,1.3155542E-1,-1.9477094E-2,-7.999249E-2,1.1139044E0,1.2553983E0,-3.6624834E-2,1.2598007E0,1.2701114E0,1.3031856E0,-6.854087E-2,-6.947304E-2,-8.361735E-2,-9.112676E-2,-7.139534E-2,-9.069814E-2,5.694721E-2,1.858283E-2,9.571509E-2,2.1439852E-2,-3.557828E-3,2.5958825E-2,1.03770144E-1,7.651887E-2,3.5801586E-2,7.016062E-2],"split_indices":[0,0,0,0,0,0,0,0,0,0,0,0,0,0,0,0,0,0,0,0,0,0,0,0,0,0,0,0,0,0,0,0,0,0,0,0,0,0,0,0,0,0,0,0,0],"split_type":[0,0,0,0,0,0,0,0,0,0,0,0,0,0,0,0,0,0,0,0,0,0,0,0,0,0,0,0,0,0,0,0,0,0,0,0,0,0,0,0,0,0,0,0,0],"sum_hessian":[2.2778303E3,1.0744541E3,1.2033762E3,1.0197311E3,5.4722984E1,3.4335376E2,8.600225E2,9.317855E2,8.794553E1,3.5498333E1,1.9224651E1,3.0502325E2,3.8330498E1,4.4394193E2,4.1608057E2,9.1765515E2,1.4130348E1,1.3257843E1,7.468769E1,5.787448E0,2.9710886E1,1.2616652E1,6.608E0,2.520482E2,5.297507E1,1.2318095E1,2.6012403E1,2.9544333E2,1.4849863E2,6.498675E0,6.759168E0,4.1283184E1,3.3404507E1,2.38719E1,5.838987E0,7.0059975E1,1.8198822E2,3.856285E1,1.4412219E1,1.2056526E1,1.3955876E1,3.5001537E1,2.6044177E2,4.2678505E1,1.05820114E2],"tree_param":{"num_deleted":"0","num_feature":"1","num_nodes":"45","size_leaf_vector":"1"}},{"base_weights":[-3.1563714E-2,-1.0860819E0,9.2543995E-1,-1.1294407E0,-4.0051594E-1,6.963067E-1,1.3357995E0,-8.963643E-2,-1.0210834E0,-5.916068E-1,-1.8989152E-1,4.352236E-1,8.9046156E-1,8.67364E-2,1.342506E0,-8.5873616E-1,-1.0437675E0,-4.9736398E-1,-7.801799E-2,3.8130227E-2,-5.687824E-2,1.2482176E0,3.1479385E-1,9.764972E-1,7.0746404E-1,1.0532403E-1,1.0532403E-1,-6.784253E-2,-6.6880055E-2,-8.469541E-2,-7.164389E-2,-5.6564838E-2,-1.6102403E-2,2.8428923E-2,1.3011186E-1,-1.6237399E-2,3.5306264E-2,7.309467E-2,1.0036476E-1,3.685067E-2,6.4044654E-2],"categories":[],"categories_nodes":[],"categories_segments":[],"categories_sizes":[],"default_left":[0,0,0,0,0,0,0,0,0,0,0,0,0,0,0,0,0,0,0,0,0,0,0,0,0,0,0,0,0,0,0,0,0,0,0,0,0,0,0,0,0],"id":12,"left_children":[1,3,5,7,9,11,13,-1,15,17,19,21,23,-1,25,27,29,31,-1,-1,-1,33,35,37,39,-1,-1,-1,-1,-1,-1,-1,-1,-1,-1,-1,-1,-1,-1,-1,-1],"loss_changes":[2.1960325E3,3.077417E1,1.07263794E2,1.3826904E0,2.4785824E0,3.7107056E1,6.310425E-1,0E0,3.868866E-1,1.225832E0,1.0595141E1,3.0567532E1,6.6098633E0,0E0,1.2207031E-4,4.8351288E-4,4.307785E-1,1.7094126E0,0E0,0E0,0E0,1.4638531E1,1.9187151E1,3.8738403E0,3.4753494E0,0E0,0E0,0E0,0E0,0E0,0E0,0E0,0E0,0E0,0E0,0E0,0E0,0E0,0E0,0E0,0E0],"parents":[2147483647,0,0,1,1,2,2,3,3,4,4,5,5,6,6,8,8,9,9,10,10,11,11,12,12,14,14,15,15,16,16,17,17,21,21,22,22,23,23,24,24],"right_children":[2,4,6,8,10,12,14,-1,16,18,20,22,24,-1,26,28,30,32,-1,-1,-1,34,36,38,40,-1,-1,-1,-1,-1,-1,-1,-1,-1,-1,-1,-1,-1,-1,-1,-1],"split_conditions":[8.2254535E-1,-2.3480846E-2,1.3053536E0,-4.86361E-1,4.7985658E-1,1.2612926E0,1.3056028E0,-8.963643E-2,-4.2042196E-1,4.6097457E-1,7.602567E-1,1.1139044E0,1.3019109E0,8.67364E-2,1.3090576E0,-4.5149517E-1,-2.2611155E-1,1.5330625E-1,-7.801799E-2,3.8130227E-2,-5.687824E-2,9.4117E-1,1.1739142E0,1.2984127E0,1.3031856E0,1.0532403E-1,1.0532403E-1,-6.784253E-2,-6.6880055E-2,-8.469541E-2,-7.164389E-2,-5.6564838E-2,-1.6102403E-2,2.8428923E-2,1.3011186E-1,-1.6237399E-2,3.5306264E-2,7.309467E-2,1.0036476E-1,3.685067E-2,6.4044654E-2],"split_indices":[0,0,0,0,0,0,0,0,0,0,0,0,0,0,0,0,0,0,0,0,0,0,0,0,0,0,0,0,0,0,0,0,0,0,0,0,0,0,0,0,0],"split_type":[0,0,0,0,0,0,0,0,0,0,0,0,0,0,0,0,0,0,0,0,0,0,0,0,0,0,0,0,0,0,0,0,0,0,0,0,0,0,0,0,0],"sum_hessian":[2.1760613E3,1.035285E3,1.1407761E3,9.7370294E2,6.1582146E1,7.3203064E2,4.0874542E2,8.686515E2,1.0505142E2,3.2288303E1,2.9293844E1,3.122045E2,4.1982617E2,1.1570247E1,3.9717517E2,1.2878889E1,9.217253E1,2.6166761E1,6.1215425E0,1.2943834E1,1.635001E1,4.0280437E1,2.7192404E2,2.8556763E2,1.3425856E2,1.3910632E2,2.5806885E2,6.5651445E0,6.313744E0,7.2338974E1,1.9833555E1,1.4820542E1,1.1346218E1,1.2749718E1,2.753072E1,5.5972324E1,2.1595174E2,2.4876169E2,3.680593E1,4.2171265E1,9.2087296E1],"tree_param":{"num_deleted":"0","num_feature":"1","num_nodes":"41","size_leaf_vector":"1"}},{"base_weights":[-3.7215583E-2,-1.0688744E0,8.7259114E-1,-1.1163851E0,-3.4281382E-1,6.424102E-1,1.3010309E0,-8.867762E-2,-1.0021304E0,-2.0112357E-1,-5.8734413E-2,3.9612487E-1,8.2959336E-1,8.335637E-2,1.3082668E0,-8.41437E-1,-1.025457E0,-5.233712E-1,4.121175E-2,1.1659821E0,2.865501E-1,9.221504E-1,6.4310014E-1,1.0263785E-1,1.0263785E-1,-6.753787E-2,-6.427593E-2,-8.33941E-2,-6.99742E-2,-3.3900186E-2,-7.519975E-2,2.3615789E-2,1.2380937E-1,-1.0227125E-2,3.0887952E-2,9.783626E-2,6.902162E-2,2.4061264E-2,5.8019143E-2],"categories":[],"categories_nodes":[],"categories_segments":[],"categories_sizes":[],"default_left":[0,0,0,0,0,0,0,0,0,0,0,0,0,0,0,0,0,0,0,0,0,0,0,0,0,0,0,0,0,0,0,0,0,0,0,0,0,0,0],"id":13,"left_children":[1,3,5,7,9,11,13,-1,15,17,-1,19,21,-1,23,25,27,29,-1,31,33,35,37,-1,-1,-1,-1,-1,-1,-1,-1,-1,-1,-1,-1,-1,-1,-1,-1],"loss_changes":[1.9545878E3,3.3663086E1,1.0912781E2,1.4587402E0,3.4464836E0,3.31846E1,6.6741943E-1,0E0,3.7330627E-1,1.0399419E1,0E0,2.6221691E1,7.0596313E0,0E0,6.1035156E-5,5.4330826E-3,4.3571472E-1,1.2221594E0,0E0,1.3806961E1,1.2157019E1,3.7629395E0,4.4009438E0,0E0,0E0,0E0,0E0,0E0,0E0,0E0,0E0,0E0,0E0,0E0,0E0,0E0,0E0,0E0,0E0],"parents":[2147483647,0,0,1,1,2,2,3,3,4,4,5,5,6,6,8,8,9,9,11,11,12,12,14,14,15,15,16,16,17,17,19,19,20,20,21,21,22,22],"right_children":[2,4,6,8,10,12,14,-1,16,18,-1,20,22,-1,24,26,28,30,-1,32,34,36,38,-1,-1,-1,-1,-1,-1,-1,-1,-1,-1,-1,-1,-1,-1,-1,-1],"split_conditions":[8.2254535E-1,-2.3480846E-2,1.3053536E0,-4.86361E-1,7.602567E-1,1.2612926E0,1.3056028E0,-8.867762E-2,-4.2042196E-1,4.7985658E-1,-5.8734413E-2,1.1139044E0,1.3019109E0,8.335637E-2,1.305826E0,-4.5149517E-1,-2.2611155E-1,4.6097457E-1,4.121175E-2,9.4117E-1,1.1739142E0,1.2701114E0,1.3028111E0,1.0263785E-1,1.0263785E-1,-6.753787E-2,-6.427593E-2,-8.33941E-2,-6.99742E-2,-3.3900186E-2,-7.519975E-2,2.3615789E-2,1.2380937E-1,-1.0227125E-2,3.0887952E-2,9.783626E-2,6.902162E-2,2.4061264E-2,5.8019143E-2],"split_indices":[0,0,0,0,0,0,0,0,0,0,0,0,0,0,0,0,0,0,0,0,0,0,0,0,0,0,0,0,0,0,0,0,0,0,0,0,0,0,0],"split_type":[0,0,0,0,0,0,0,0,0,0,0,0,0,0,0,0,0,0,0,0,0,0,0,0,0,0,0,0,0,0,0,0,0,0,0,0,0,0,0],"sum_hessian":[2.0824277E3,9.758642E2,1.1065635E3,9.159292E2,5.9935024E1,7.198313E2,3.8673218E2,8.1633905E2,9.95901E1,4.442502E1,1.5510009E1,3.1084216E2,4.089891E2,1.1386162E1,3.7534604E2,1.2624158E1,8.696594E1,3.077363E1,1.3651387E1,3.8730064E1,2.721121E2,2.7333322E2,1.356559E2,1.0086074E1,3.6525995E2,6.7246833E0,5.8994746E0,6.789026E1,1.907569E1,2.5438475E1,5.3351545E0,1.2498871E1,2.6231194E1,5.564107E1,2.1647102E2,3.1532333E1,2.4180089E2,3.022412E1,1.0543177E2],"tree_param":{"num_deleted":"0","num_feature":"1","num_nodes":"39","size_leaf_vector":"1"}},{"base_weights":[-3.045941E-2,-1.0544215E0,8.266908E-1,-1.1052815E0,-3.5072124E-1,5.9273374E-1,1.2732736E0,-1.1192646E0,-9.9043673E-1,-2.4053863E-1,-5.215265E-2,3.577206E-1,7.722473E-1,8.764475E-2,1.2781965E0,-8.781E-2,-8.781E-2,-8.1558734E-1,-1.0168036E0,-5.260773E-1,3.064337E-2,1.089737E0,2.5813445E-1,8.636949E-1,5.8166945E-1,1.00278735E-1,1.00278735E-1,-6.554019E-2,-6.221767E-2,-8.324854E-2,-6.764889E-2,-3.4387067E-2,-7.442838E-2,1.9080218E-2,1.18527584E-1,-1.0502206E-2,2.8369097E-2,9.5182784E-2,6.424886E-2,1.6234048E-2,5.401687E-2],"categories":[],"categories_nodes":[],"categories_segments":[],"categories_sizes":[],"default_left":[0,0,0,0,0,0,0,0,0,0,0,0,0,0,0,0,0,0,0,0,0,0,0,0,0,0,0,0,0,0,0,0,0,0,0,0,0,0,0,0,0],"id":14,"left_children":[1,3,5,7,9,11,13,15,17,19,-1,21,23,-1,25,-1,-1,27,29,31,-1,33,35,37,39,-1,-1,-1,-1,-1,-1,-1,-1,-1,-1,-1,-1,-1,-1,-1,-1],"loss_changes":[1.7464839E3,3.245111E1,1.1316998E2,1.3579102E0,2.1146827E0,2.9986832E1,2.8619385E-1,6.1035156E-5,4.2312622E-1,8.1531315E0,0E0,2.2439133E1,7.023056E0,0E0,6.1035156E-5,0E0,0E0,5.37014E-3,5.461807E-1,1.1553535E0,0E0,1.3139061E1,1.0989899E1,4.2596283E0,5.2322235E0,0E0,0E0,0E0,0E0,0E0,0E0,0E0,0E0,0E0,0E0,0E0,0E0,0E0,0E0,0E0,0E0],"parents":[2147483647,0,0,1,1,2,2,3,3,4,4,5,5,6,6,7,7,8,8,9,9,11,11,12,12,14,14,17,17,18,18,19,19,21,21,22,22,23,23,24,24],"right_children":[2,4,6,8,10,12,14,16,18,20,-1,22,24,-1,26,-1,-1,28,30,32,-1,34,36,38,40,-1,-1,-1,-1,-1,-1,-1,-1,-1,-1,-1,-1,-1,-1,-1,-1],"split_conditions":[8.2254535E-1,-2.3480846E-2,1.3053536E0,-4.86361E-1,7.602567E-1,1.2612926E0,1.3056028E0,-9.585506E-1,-4.2042196E-1,4.7985658E-1,-5.215265E-2,1.1139044E0,1.3019109E0,8.764475E-2,1.3083073E0,-8.781E-2,-8.781E-2,-4.5149517E-1,-2.2611155E-1,4.6097457E-1,3.064337E-2,9.4117E-1,1.1739142E0,1.2701114E0,1.3028111E0,1.00278735E-1,1.00278735E-1,-6.554019E-2,-6.221767E-2,-8.324854E-2,-6.764889E-2,-3.4387067E-2,-7.442838E-2,1.9080218E-2,1.18527584E-1,-1.0502206E-2,2.8369097E-2,9.5182784E-2,6.424886E-2,1.6234048E-2,5.401687E-2],"split_indices":[0,0,0,0,0,0,0,0,0,0,0,0,0,0,0,0,0,0,0,0,0,0,0,0,0,0,0,0,0,0,0,0,0,0,0,0,0,0,0,0,0],"split_type":[0,0,0,0,0,0,0,0,0,0,0,0,0,0,0,0,0,0,0,0,0,0,0,0,0,0,0,0,0,0,0,0,0,0,0,0,0,0,0,0,0],"sum_hessian":[1.9898658E3,9.0670496E2,1.0831609E3,8.455899E2,6.1115047E1,7.107901E2,3.7237073E2,7.538089E2,9.178103E1,4.5241707E1,1.587334E1,3.0781247E2,4.0297763E2,1.138314E1,3.6098758E2,1.3566275E2,6.181461E2,1.2026777E1,7.975426E1,3.114913E1,1.4092576E1,3.686119E1,2.709513E2,2.7231094E2,1.3066669E2,8.9054955E1,2.7193262E2,6.3992167E0,5.627561E0,6.1978195E1,1.777606E1,2.5792782E1,5.3563495E0,1.2244437E1,2.4616755E1,5.6583466E1,2.1436781E2,3.0906048E1,2.4140489E2,2.8991394E1,1.01675285E2],"tree_param":{"num_deleted":"0","num_feature":"1","num_nodes":"41","size_leaf_vector":"1"}},{"base_weights":[-3.307131E-2,-1.0734988E0,7.6167804E-1,-1.099865E0,-6.406623E-1,5.2999026E-1,1.2459903E0,-1.1092385E0,-1.005285E0,-7.9054326E-1,-3.6792028E-1,2.8432304E-1,7.3953795E-1,8.349367E-2,1.2516525E0,-8.702342E-2,-1.1092385E0,-7.964811E-1,-1.0470803E0,-4.4983443E-2,-8.363428E-1,-9.227327E-3,-7.31018E-2,3.5646847E-1,-1.01198815E-1,1.2143853E0,7.0104814E-1,9.819627E-2,9.819627E-2,-8.702342E-2,-8.702342E-2,-6.4013414E-2,-6.0758963E-2,-8.757586E-2,-7.751035E-2,-7.542739E-2,-5.7141714E-2,1.8733254E-2,8.88695E-2,-1.97112E-2,3.7146949E-3,1.0058777E-1,9.235155E-2,6.1278217E-2,4.3503445E-2],"categories":[],"categories_nodes":[],"categories_segments":[],"categories_sizes":[],"default_left":[0,0,0,0,0,0,0,0,0,0,0,0,0,0,0,0,0,0,0,0,0,0,0,0,0,0,0,0,0,0,0,0,0,0,0,0,0,0,0,0,0,0,0,0,0],"id":15,"left_children":[1,3,5,7,9,11,13,15,17,19,21,23,25,-1,27,-1,29,31,33,-1,35,-1,-1,37,39,41,43,-1,-1,-1,-1,-1,-1,-1,-1,-1,-1,-1,-1,-1,-1,-1,-1,-1,-1],"loss_changes":[1.5730409E3,9.401978E0,1.21020996E2,6.884155E-1,1.933712E0,3.7555573E1,3.5906982E-1,1.2207031E-4,6.11084E-1,3.03627E-1,2.36773E0,9.340469E0,7.1957397E0,0E0,1.2207031E-4,0E0,6.1035156E-5,5.004883E-3,2.3860931E-1,0E0,3.4054947E-1,0E0,0E0,2.5844353E1,1.1799638E0,7.4459076E-2,4.270935E0,0E0,0E0,0E0,0E0,0E0,0E0,0E0,0E0,0E0,0E0,0E0,0E0,0E0,0E0,0E0,0E0,0E0,0E0],"parents":[2147483647,0,0,1,1,2,2,3,3,4,4,5,5,6,6,7,7,8,8,9,9,10,10,11,11,12,12,14,14,16,16,17,17,18,18,20,20,23,23,24,24,25,25,26,26],"right_children":[2,4,6,8,10,12,14,16,18,20,22,24,26,-1,28,-1,30,32,34,-1,36,-1,-1,38,40,42,44,-1,-1,-1,-1,-1,-1,-1,-1,-1,-1,-1,-1,-1,-1,-1,-1,-1,-1],"split_conditions":[4.7985658E-1,-2.2611155E-1,1.3053536E0,-4.86361E-1,1.5330625E-1,1.2612926E0,1.3056028E0,-1.005705E0,-4.2042196E-1,-9.661228E-2,4.6097457E-1,1.2553983E0,1.2701114E0,8.349367E-2,1.3100744E0,-8.702342E-2,-9.574982E-1,-4.5149517E-1,-3.606176E-1,-4.4983443E-2,-2.3480846E-2,-9.227327E-3,-7.31018E-2,1.240063E0,1.2588334E0,1.2654198E0,1.3019109E0,9.819627E-2,9.819627E-2,-8.702342E-2,-8.702342E-2,-6.4013414E-2,-6.0758963E-2,-8.757586E-2,-7.751035E-2,-7.542739E-2,-5.7141714E-2,1.8733254E-2,8.88695E-2,-1.97112E-2,3.7146949E-3,1.0058777E-1,9.235155E-2,6.1278217E-2,4.3503445E-2],"split_indices":[0,0,0,0,0,0,0,0,0,0,0,0,0,0,0,0,0,0,0,0,0,0,0,0,0,0,0,0,0,0,0,0,0,0,0,0,0,0,0,0,0,0,0,0,0],"split_type":[0,0,0,0,0,0,0,0,0,0,0,0,0,0,0,0,0,0,0,0,0,0,0,0,0,0,0,0,0,0,0,0,0,0,0,0,0,0,0,0,0,0,0,0,0],"sum_hessian":[1.9023833E3,8.23854E2,1.0785293E3,7.765506E2,4.7303463E1,7.2953204E2,3.4899722E2,7.065288E2,7.0021774E1,3.0527546E1,1.6775919E1,3.3582327E2,3.9370877E2,1.0544347E1,3.3845288E2,1.0298736E1,6.9623004E2,1.1678324E1,5.834345E1,5.316875E0,2.521067E1,1.1618419E1,5.1575007E0,2.82885E2,5.2938267E1,2.9520138E1,3.6418863E2,2.4737419E2,9.107868E1,1.2198675E2,5.742433E2,6.1993575E0,5.478966E0,2.6875181E1,3.1468267E1,1.1680639E1,1.3530031E1,2.4564546E2,3.7239544E1,2.6336096E1,2.660217E1,1.0469352E1,1.9050787E1,2.3554436E2,1.2864427E2],"tree_param":{"num_deleted":"0","num_feature":"1","num_nodes":"45","size_leaf_vector":"1"}},{"base_weights":[-2.9161232E-2,-1.0594952E0,7.254784E-1,-1.084042E0,-4.640292E-1,4.994815E-1,1.2189009E0,-1.1001341E0,-9.5436627E-1,-5.0908115E-2,-2.4713986E-2,2.6804855E-1,7.0340246E-1,7.315048E-2,9.634973E-2,-8.630916E-2,-8.630916E-2,-7.611578E-1,-9.83887E-1,3.3128288E-1,-8.587134E-2,1.1853336E0,6.6529715E-1,-6.160563E-2,-5.7533257E-2,-8.36581E-2,-7.368864E-2,1.7597966E-2,8.31733E-2,-1.5760757E-2,1.7671296E-3,9.846962E-2,8.9949384E-2,5.8607876E-2,4.0844843E-2],"categories":[],"categories_nodes":[],"categories_segments":[],"categories_sizes":[],"default_left":[0,0,0,0,0,0,0,0,0,0,0,0,0,0,0,0,0,0,0,0,0,0,0,0,0,0,0,0,0,0,0,0,0,0,0],"id":16,"left_children":[1,3,5,7,9,11,13,15,17,-1,-1,19,21,-1,-1,-1,-1,23,25,27,29,31,33,-1,-1,-1,-1,-1,-1,-1,-1,-1,-1,-1,-1],"loss_changes":[1.4170886E3,1.1262573E1,1.1731317E2,1.5441895E0,8.403654E-1,3.4052536E1,8.725281E-1,1.2207031E-4,4.6596527E-1,0E0,0E0,7.563797E0,7.0439606E0,0E0,0E0,0E0,0E0,7.256508E-3,2.6072693E-1,2.235705E1,6.387526E-1,7.611847E-2,4.20372E0,0E0,0E0,0E0,0E0,0E0,0E0,0E0,0E0,0E0,0E0,0E0,0E0],"parents":[2147483647,0,0,1,1,2,2,3,3,4,4,5,5,6,6,7,7,8,8,11,11,12,12,17,17,18,18,19,19,20,20,21,21,22,22],"right_children":[2,4,6,8,10,12,14,16,18,-1,-1,20,22,-1,-1,-1,-1,24,26,28,30,32,34,-1,-1,-1,-1,-1,-1,-1,-1,-1,-1,-1,-1],"split_conditions":[4.7985658E-1,-2.3480846E-2,1.3053536E0,-4.86361E-1,1.5330625E-1,1.2612926E0,1.3056028E0,-8.781742E-1,-4.2042196E-1,-5.0908115E-2,-2.4713986E-2,1.2553983E0,1.2701114E0,7.315048E-2,9.634973E-2,-8.630916E-2,-8.630916E-2,-4.5149517E-1,-3.606176E-1,1.240063E0,1.2588334E0,1.2654198E0,1.3019109E0,-6.160563E-2,-5.7533257E-2,-8.36581E-2,-7.368864E-2,1.7597966E-2,8.31733E-2,-1.5760757E-2,1.7671296E-3,9.846962E-2,8.9949384E-2,5.8607876E-2,4.0844843E-2],"split_indices":[0,0,0,0,0,0,0,0,0,0,0,0,0,0,0,0,0,0,0,0,0,0,0,0,0,0,0,0,0,0,0,0,0,0,0],"split_type":[0,0,0,0,0,0,0,0,0,0,0,0,0,0,0,0,0,0,0,0,0,0,0,0,0,0,0,0,0,0,0,0,0,0,0],"sum_hessian":[1.8225494E3,7.705257E2,1.0520237E3,7.400201E2,3.050561E1,7.2154315E2,3.304806E2,6.583246E2,8.1695496E1,1.361488E1,1.689073E1,3.3797284E2,3.835703E2,1.0298265E1,3.201823E2,2.964405E2,3.618841E2,1.0827991E1,7.086751E1,2.867412E2,5.1231625E1,2.8105886E1,3.5546442E2,5.8019257E0,5.0260644E0,2.4883486E1,4.598402E1,2.5004433E2,3.6696877E1,2.4856089E1,2.6375536E1,1.0041133E1,1.8064753E1,2.2712852E2,1.283359E2],"tree_param":{"num_deleted":"0","num_feature":"1","num_nodes":"35","size_leaf_vector":"1"}},{"base_weights":[-2.725496E-2,-1.0135487E0,7.176711E-1,-1.0730293E0,-3.0614024E-1,4.9709848E-1,1.2001805E0,-1.0918541E0,-9.2382133E-1,-1.6154526E-1,-5.4754846E-2,3.0931628E-1,6.49087E-1,7.626685E-2,9.470587E-2,-8.565955E-2,-8.5659556E-2,-5.8311358E-2,-9.5241094E-1,-4.1707727E-1,3.122972E-2,9.9743223E-1,2.1882953E-1,1.1181377E0,6.1415994E-1,-7.8516275E-2,-6.2059253E-2,-4.7772173E-2,-2.0813802E-2,9.028603E-3,1.1277836E-1,-4.5500096E-2,2.1058429E-2,9.659257E-2,8.288912E-2,3.3924267E-2,5.3077444E-2],"categories":[],"categories_nodes":[],"categories_segments":[],"categories_sizes":[],"default_left":[0,0,0,0,0,0,0,0,0,0,0,0,0,0,0,0,0,0,0,0,0,0,0,0,0,0,0,0,0,0,0,0,0,0,0,0,0],"id":17,"left_children":[1,3,5,7,9,11,13,15,17,19,-1,21,23,-1,-1,-1,-1,-1,25,27,-1,29,31,33,35,-1,-1,-1,-1,-1,-1,-1,-1,-1,-1,-1,-1],"loss_changes":[1.2732123E3,3.1375183E1,1.05073395E2,1.9320679E0,3.2763486E0,1.9337494E1,4.9319458E-1,6.1035156E-5,3.9778137E-1,6.0407963E0,0E0,1.887151E1,6.1345825E0,0E0,0E0,0E0,0E0,0E0,5.1950836E-1,8.4444666E-1,0E0,1.3677647E1,1.0610548E1,1.807518E-1,3.9516754E0,0E0,0E0,0E0,0E0,0E0,0E0,0E0,0E0,0E0,0E0,0E0,0E0],"parents":[2147483647,0,0,1,1,2,2,3,3,4,4,5,5,6,6,7,7,8,8,9,9,11,11,12,12,18,18,19,19,21,21,22,22,23,23,24,24],"right_children":[2,4,6,8,10,12,14,16,18,20,-1,22,24,-1,-1,-1,-1,-1,26,28,-1,30,32,34,36,-1,-1,-1,-1,-1,-1,-1,-1,-1,-1,-1,-1],"split_conditions":[8.2254535E-1,-2.3480846E-2,1.3053536E0,-4.86361E-1,7.602567E-1,1.2612926E0,1.3056028E0,-1.005705E0,-4.2042196E-1,4.7985658E-1,-5.4754846E-2,1.1139044E0,1.2701114E0,7.626685E-2,9.470587E-2,-8.565955E-2,-8.5659556E-2,-5.8311358E-2,-2.2611155E-1,1.5330625E-1,3.122972E-2,9.4117E-1,1.1288396E0,1.2654198E0,1.2851579E0,-7.8516275E-2,-6.2059253E-2,-4.7772173E-2,-2.0813802E-2,9.028603E-3,1.1277836E-1,-4.5500096E-2,2.1058429E-2,9.659257E-2,8.288912E-2,3.3924267E-2,5.3077444E-2],"split_indices":[0,0,0,0,0,0,0,0,0,0,0,0,0,0,0,0,0,0,0,0,0,0,0,0,0,0,0,0,0,0,0,0,0,0,0,0,0],"split_type":[0,0,0,0,0,0,0,0,0,0,0,0,0,0,0,0,0,0,0,0,0,0,0,0,0,0,0,0,0,0,0,0,0,0,0,0,0],"sum_hessian":[1.7329313E3,7.456625E2,9.872688E2,6.878283E2,5.78342E1,6.775404E2,3.0972836E2,6.107705E2,7.7057785E1,4.224362E1,1.559058E1,3.030819E2,3.744585E2,9.200715E0,3.0052765E2,8.706581E0,6.020639E2,1.0533412E1,6.6524376E1,2.9001072E1,1.3242552E1,3.5223225E1,2.678587E2,2.5951015E1,3.485075E2,5.1177795E1,1.534658E1,1.2809532E1,1.619154E1,1.1721811E1,2.3501413E1,1.56570835E1,2.5220161E2,9.151552E0,1.6799463E1,8.906063E1,2.5944687E2],"tree_param":{"num_deleted":"0","num_feature":"1","num_nodes":"37","size_leaf_vector":"1"}},{"base_weights":[-3.041867E-2,-1.0020227E0,6.7772955E-1,-1.0641633E0,-3.0909923E-1,4.6018827E-1,1.1776628E0,-8.506797E-2,-9.065865E-1,-1.8501447E-1,-5.096012E-2,2.6407486E-1,6.235622E-1,6.767135E-2,9.32373E-2,-5.6077097E-2,-9.368751E-1,-4.3707222E-1,2.7003495E-2,9.477043E-1,1.7366314E-1,7.1526027E-1,4.4808635E-1,-7.755789E-2,-5.9685294E-2,-4.7083523E-2,-2.3985127E-2,7.641027E-3,1.09117545E-1,-1.42143555E-2,2.0962914E-2,4.2249568E-2,6.8254195E-2,1.1976928E-2,4.222432E-2],"categories":[],"categories_nodes":[],"categories_segments":[],"categories_sizes":[],"default_left":[0,0,0,0,0,0,0,0,0,0,0,0,0,0,0,0,0,0,0,0,0,0,0,0,0,0,0,0,0,0,0,0,0,0,0],"id":18,"left_children":[1,3,5,7,9,11,13,-1,15,17,-1,19,21,-1,-1,-1,23,25,-1,27,29,31,33,-1,-1,-1,-1,-1,-1,-1,-1,-1,-1,-1,-1],"loss_changes":[1.1465531E3,3.0249695E1,1.0482834E2,2.0471191E0,2.442515E0,2.1518906E1,9.927368E-1,0E0,4.2464066E-1,5.6522455E0,0E0,1.8865791E1,5.895645E0,0E0,0E0,0E0,5.748558E-1,6.147914E-1,0E0,1.3434544E1,8.947871E0,6.580818E0,3.3481236E0,0E0,0E0,0E0,0E0,0E0,0E0,0E0,0E0,0E0,0E0,0E0,0E0],"parents":[2147483647,0,0,1,1,2,2,3,3,4,4,5,5,6,6,8,8,9,9,11,11,12,12,16,16,17,17,19,19,20,20,21,21,22,22],"right_children":[2,4,6,8,10,12,14,-1,16,18,-1,20,22,-1,-1,-1,24,26,-1,28,30,32,34,-1,-1,-1,-1,-1,-1,-1,-1,-1,-1,-1,-1],"split_conditions":[8.2254535E-1,-2.3480846E-2,1.3053536E0,-4.86361E-1,7.602567E-1,1.2612926E0,1.3056028E0,-8.506797E-2,-4.2042196E-1,4.7985658E-1,-5.096012E-2,1.1139044E0,1.3019109E0,6.767135E-2,9.32373E-2,-5.6077097E-2,-2.2611155E-1,1.5330625E-1,2.7003495E-2,9.4117E-1,1.1739142E0,1.2851579E0,1.3028111E0,-7.755789E-2,-5.9685294E-2,-4.7083523E-2,-2.3985127E-2,7.641027E-3,1.09117545E-1,-1.42143555E-2,2.0962914E-2,4.2249568E-2,6.8254195E-2,1.1976928E-2,4.222432E-2],"split_indices":[0,0,0,0,0,0,0,0,0,0,0,0,0,0,0,0,0,0,0,0,0,0,0,0,0,0,0,0,0,0,0,0,0,0,0],"split_type":[0,0,0,0,0,0,0,0,0,0,0,0,0,0,0,0,0,0,0,0,0,0,0,0,0,0,0,0,0,0,0,0,0,0,0],"sum_hessian":[1.6664056E3,7.0252155E2,9.638841E2,6.44705E2,5.781651E1,6.7163043E2,2.922536E2,5.716103E2,7.309473E1,4.237314E1,1.5443371E1,3.0523163E2,3.663988E2,9.668213E0,2.825854E2,9.968538E0,6.312619E1,2.8702484E1,1.3670652E1,3.565252E1,2.6957913E2,2.4064532E2,1.2575349E2,4.8797E1,1.43291855E1,1.2804722E1,1.5897762E1,1.221496E1,2.3437557E1,5.6237953E1,2.1334117E2,1.1233977E2,1.2830556E2,2.9395449E1,9.635804E1],"tree_param":{"num_deleted":"0","num_feature":"1","num_nodes":"35","size_leaf_vector":"1"}},{"base_weights":[-2.8051132E-2,-9.90947E-1,6.470686E-1,-1.0556426E0,-3.099364E-1,4.3868655E-1,1.1598771E0,-1.0774376E0,-8.872818E-1,-1.9290304E-1,-4.872342E-2,2.4622704E-1,6.014786E-1,6.553942E-2,9.192119E-2,-8.452854E-2,-8.452854E-2,-5.3837694E-2,-9.1941947E-1,-3.891506E-1,1.8798567E-2,8.918773E-1,1.6267164E-1,1.0810964E0,5.669467E-1,-7.64426E-2,-5.7686422E-2,-4.4147957E-2,-2.0406418E-2,9.145283E-3,1.05947636E-1,-4.6089597E-2,1.637249E-2,9.424109E-2,7.969283E-2,3.0668024E-2,4.9284E-2],"categories":[],"categories_nodes":[],"categories_segments":[],"categories_sizes":[],"default_left":[0,0,0,0,0,0,0,0,0,0,0,0,0,0,0,0,0,0,0,0,0,0,0,0,0,0,0,0,0,0,0,0,0,0,0,0,0],"id":19,"left_children":[1,3,5,7,9,11,13,15,17,19,-1,21,23,-1,-1,-1,-1,-1,25,27,-1,29,31,33,35,-1,-1,-1,-1,-1,-1,-1,-1,-1,-1,-1,-1],"loss_changes":[1.0326412E3,2.8845642E1,9.978522E1,2.1939697E0,2.0681782E0,2.0803108E1,1.0322876E0,1.2207031E-4,4.4277573E-1,3.5034318E0,0E0,1.641439E1,5.957657E0,0E0,0E0,0E0,0E0,0E0,5.978241E-1,6.3595486E-1,0E0,1.2395504E1,9.300108E0,1.8952751E-1,3.6180115E0,0E0,0E0,0E0,0E0,0E0,0E0,0E0,0E0,0E0,0E0,0E0,0E0],"parents":[2147483647,0,0,1,1,2,2,3,3,4,4,5,5,6,6,7,7,8,8,9,9,11,11,12,12,18,18,19,19,21,21,22,22,23,23,24,24],"right_children":[2,4,6,8,10,12,14,16,18,20,-1,22,24,-1,-1,-1,-1,-1,26,28,-1,30,32,34,36,-1,-1,-1,-1,-1,-1,-1,-1,-1,-1,-1,-1],"split_conditions":[8.2254535E-1,-2.3480846E-2,1.3053536E0,-4.86361E-1,7.602567E-1,1.2612926E0,1.3056028E0,-9.843302E-1,-4.2042196E-1,4.7985658E-1,-4.872342E-2,1.1139044E0,1.2701114E0,6.553942E-2,9.192119E-2,-8.452854E-2,-8.452854E-2,-5.3837694E-2,-2.2611155E-1,1.5330625E-1,1.8798567E-2,9.4117E-1,1.1288396E0,1.2654198E0,1.2851579E0,-7.64426E-2,-5.7686422E-2,-4.4147957E-2,-2.0406418E-2,9.145283E-3,1.05947636E-1,-4.6089597E-2,1.637249E-2,9.424109E-2,7.969283E-2,3.0668024E-2,4.9284E-2],"split_indices":[0,0,0,0,0,0,0,0,0,0,0,0,0,0,0,0,0,0,0,0,0,0,0,0,0,0,0,0,0,0,0,0,0,0,0,0,0],"split_type":[0,0,0,0,0,0,0,0,0,0,0,0,0,0,0,0,0,0,0,0,0,0,0,0,0,0,0,0,0,0,0,0,0,0,0,0,0],"sum_hessian":[1.5885078E3,6.547147E2,9.337931E2,5.979133E2,5.6801445E1,6.6398126E2,2.698118E2,5.293827E2,6.8530624E1,4.127485E1,1.5526595E1,3.042657E2,3.597156E2,9.460228E0,2.6035156E2,5.303166E1,4.76351E2,9.445102E0,5.9085526E1,2.839232E1,1.2882529E1,3.486402E1,2.6940167E2,2.415963E1,3.3555597E2,4.550471E1,1.3580812E1,1.2106889E1,1.6285433E1,1.2957331E1,2.1906689E1,1.5571652E1,2.5383002E2,8.507104E0,1.5652526E1,8.661385E1,2.4894212E2],"tree_param":{"num_deleted":"0","num_feature":"1","num_nodes":"37","size_leaf_vector":"1"}},{"base_weights":[-3.4778785E-2,-1.0171084E0,5.836179E-1,-1.055769E0,-4.971138E-1,3.7270135E-1,1.1475536E0,-1.071161E0,-9.0903085E-1,-6.423567E-1,-1.9989166E-2,1.9312446E-1,5.4386884E-1,6.910806E-2,1.1565912E0,-8.403611E-2,-1.071161E0,-8.366259E-1,-8.4563136E-2,-5.6725413E-2,-4.3365166E-2,2.4644785E-1,-2.070332E-1,6.6328263E-1,3.154407E-1,9.07384E-2,9.07384E-2,-8.403612E-2,-8.403612E-2,-7.13258E-2,-4.5676026E-2,1.2188831E-2,5.4976482E-2,-3.1176113E-2,1.07709225E-2,8.276568E-2,4.8682816E-2,4.3649143E-3,3.541042E-2],"categories":[],"categories_nodes":[],"categories_segments":[],"categories_sizes":[],"default_left":[0,0,0,0,0,0,0,0,0,0,0,0,0,0,0,0,0,0,0,0,0,0,0,0,0,0,0,0,0,0,0,0,0,0,0,0,0,0,0],"id":20,"left_children":[1,3,5,7,9,11,13,15,17,19,-1,21,23,-1,25,-1,27,29,-1,-1,-1,31,33,35,37,-1,-1,-1,-1,-1,-1,-1,-1,-1,-1,-1,-1,-1,-1],"loss_changes":[9.2205865E2,1.178833E1,1.1079358E2,1.232727E0,1.4282284E0,2.0838028E1,6.11084E-1,6.1035156E-5,6.334839E-1,1.8344784E-1,0E0,7.0593452E0,9.467796E0,0E0,3.0517578E-5,0E0,6.1035156E-5,6.691513E-1,0E0,0E0,0E0,1.2080278E1,2.5497465E0,3.8166885E0,4.2075815E0,0E0,0E0,0E0,0E0,0E0,0E0,0E0,0E0,0E0,0E0,0E0,0E0,0E0,0E0],"parents":[2147483647,0,0,1,1,2,2,3,3,4,4,5,5,6,6,7,7,8,8,9,9,11,11,12,12,14,14,16,16,17,17,21,21,22,22,23,23,24,24],"right_children":[2,4,6,8,10,12,14,16,18,20,-1,22,24,-1,26,-1,28,30,-1,-1,-1,32,34,36,38,-1,-1,-1,-1,-1,-1,-1,-1,-1,-1,-1,-1,-1,-1],"split_conditions":[4.7985658E-1,-2.2611155E-1,1.3053536E0,-4.86361E-1,1.5330625E-1,1.2612926E0,1.3056028E0,-1.005705E0,-3.2073358E-1,-2.3480846E-2,-1.9989166E-2,1.2577245E0,1.3019109E0,6.910806E-2,1.3102754E0,-8.403611E-2,-9.91521E-1,-3.606176E-1,-8.4563136E-2,-5.6725413E-2,-4.3365166E-2,1.240063E0,1.2598007E0,1.2701114E0,1.3031856E0,9.07384E-2,9.07384E-2,-8.403612E-2,-8.403612E-2,-7.13258E-2,-4.5676026E-2,1.2188831E-2,5.4976482E-2,-3.1176113E-2,1.07709225E-2,8.276568E-2,4.8682816E-2,4.3649143E-3,3.541042E-2],"split_indices":[0,0,0,0,0,0,0,0,0,0,0,0,0,0,0,0,0,0,0,0,0,0,0,0,0,0,0,0,0,0,0,0,0,0,0,0,0,0,0],"split_type":[0,0,0,0,0,0,0,0,0,0,0,0,0,0,0,0,0,0,0,0,0,0,0,0,0,0,0,0,0,0,0,0,0,0,0,0,0,0,0],"sum_hessian":[1.5178683E3,5.863868E2,9.314815E2,5.458071E2,4.0579628E1,6.7793005E2,2.5355147E2,4.939903E2,5.181684E1,2.5372149E1,1.5207481E1,3.3083807E2,3.4709198E2,8.311293E0,2.4524019E2,7.1943345E0,4.8679596E2,3.6265533E1,1.5551309E1,1.3350208E1,1.2021939E1,2.9193588E2,3.89022E1,2.2793565E2,1.1915631E2,2.3833365E2,6.9065256E0,2.4994112E1,4.6180185E2,2.8220964E1,8.044568E0,2.431807E2,4.8755196E1,2.5052525E1,1.3849673E1,2.2429817E1,2.0550584E2,4.0926052E1,7.8230255E1],"tree_param":{"num_deleted":"0","num_feature":"1","num_nodes":"39","size_leaf_vector":"1"}},{"base_weights":[-2.7642649E-2,-1.0089617E0,5.616333E-1,-1.0507215E0,-4.7464645E-1,3.596908E-1,1.1291403E0,-8.3586134E-2,-9.1193455E-1,-6.1290836E-1,-2.017985E-2,1.9178496E-1,5.1993185E-1,5.8857E-2,1.143008E0,-8.460808E-1,-8.4067725E-2,-5.4944485E-2,-4.041151E-2,3.1884244E-1,7.01258E-2,6.2249523E-1,3.3130303E-1,8.9672744E-2,8.967275E-2,-7.305524E-2,-4.241103E-2,1.0375239E-2,6.742177E-2,-1.3997838E-2,2.3836955E-2,8.122504E-2,4.5330584E-2,1.2417424E-3,3.4087457E-2],"categories":[],"categories_nodes":[],"categories_segments":[],"categories_sizes":[],"default_left":[0,0,0,0,0,0,0,0,0,0,0,0,0,0,0,0,0,0,0,0,0,0,0,0,0,0,0,0,0,0,0,0,0,0,0],"id":21,"left_children":[1,3,5,7,9,11,13,-1,15,17,-1,19,21,-1,23,25,-1,-1,-1,27,29,31,33,-1,-1,-1,-1,-1,-1,-1,-1,-1,-1,-1,-1],"loss_changes":[8.402849E2,1.2164917E1,1.0405008E2,1.0319214E0,1.188077E0,1.8016655E1,1.2521362E0,0E0,5.0922394E-1,2.0660305E-1,0E0,5.0545826E0,6.628769E0,0E0,3.0517578E-5,8.916817E-1,0E0,0E0,0E0,1.6132889E1,9.703414E0,4.095108E0,3.9287128E0,0E0,0E0,0E0,0E0,0E0,0E0,0E0,0E0,0E0,0E0,0E0,0E0],"parents":[2147483647,0,0,1,1,2,2,3,3,4,4,5,5,6,6,8,8,9,9,11,11,12,12,14,14,15,15,19,19,20,20,21,21,22,22],"right_children":[2,4,6,8,10,12,14,-1,16,18,-1,20,22,-1,24,26,-1,-1,-1,28,30,32,34,-1,-1,-1,-1,-1,-1,-1,-1,-1,-1,-1,-1],"split_conditions":[4.7985658E-1,-2.2611155E-1,1.3053536E0,-4.86361E-1,1.5330625E-1,1.2612926E0,1.3056028E0,-8.3586134E-2,-3.2073358E-1,-2.3480846E-2,-2.017985E-2,1.2193501E0,1.3019109E0,5.8857E-2,1.305826E0,-3.606176E-1,-8.4067725E-2,-5.4944485E-2,-4.041151E-2,1.1739142E0,1.240063E0,1.2701114E0,1.3028111E0,8.9672744E-2,8.967275E-2,-7.305524E-2,-4.241103E-2,1.0375239E-2,6.742177E-2,-1.3997838E-2,2.3836955E-2,8.122504E-2,4.5330584E-2,1.2417424E-3,3.4087457E-2],"split_indices":[0,0,0,0,0,0,0,0,0,0,0,0,0,0,0,0,0,0,0,0,0,0,0,0,0,0,0,0,0,0,0,0,0,0,0],"split_type":[0,0,0,0,0,0,0,0,0,0,0,0,0,0,0,0,0,0,0,0,0,0,0,0,0,0,0,0,0,0,0,0,0,0,0],"sum_hessian":[1.4531069E3,5.4519525E2,9.079117E2,5.0567392E2,3.9521336E1,6.6962964E2,2.3828203E2,4.572326E2,4.8441338E1,2.415869E1,1.5362644E1,3.2699432E2,3.4263535E2,8.412718E0,2.2986931E2,3.4293728E1,1.4147611E1,1.2755393E1,1.1403296E1,1.5994849E2,1.6704582E2,2.2195271E2,1.2068263E2,6.0203867E0,2.2384892E2,2.6821081E1,7.472647E0,1.1890328E2,4.1045204E1,8.095312E1,8.6092705E1,2.16807E1,2.00272E2,2.9745234E1,9.093739E1],"tree_param":{"num_deleted":"0","num_feature":"1","num_nodes":"35","size_leaf_vector":"1"}},{"base_weights":[-2.853106E-2,-1.022854E0,5.15805E-1,-1.060179E0,-7.9122937E-1,3.2453778E-1,1.1307421E0,-8.317454E-2,-8.317454E-2,-8.746641E-1,-6.25232E-1,1.6107473E-1,4.893737E-1,8.871045E-2,8.871045E-2,-4.568176E-2,-9.355688E-1,-3.9527915E-2,-5.4693837E-2,2.1618976E-1,-1.3979326E-1,1.0152498E0,4.5562714E-1,-6.795411E-2,-8.361502E-2,9.565916E-3,7.369277E-2,-1.3488063E-3,-1.466245E-2,9.064805E-2,7.4047096E-2,4.2697728E-2,2.49597E-2],"categories":[],"categories_nodes":[],"categories_segments":[],"categories_sizes":[],"default_left":[0,0,0,0,0,0,0,0,0,0,0,0,0,0,0,0,0,0,0,0,0,0,0,0,0,0,0,0,0,0,0,0,0],"id":22,"left_children":[1,3,5,7,9,11,13,-1,-1,15,17,19,21,-1,-1,-1,23,-1,-1,25,27,29,31,-1,-1,-1,-1,-1,-1,-1,-1,-1,-1],"loss_changes":[7.5700885E2,4.277771E0,1.0630719E2,6.1035156E-5,9.5106125E-1,1.8575836E1,3.0517578E-5,0E0,0E0,8.137932E-1,2.0053577E-1,5.739916E0,6.091728E0,0E0,0E0,0E0,3.4179306E-1,0E0,0E0,1.9940815E1,3.094716E-1,2.0723152E-1,3.9297943E0,0E0,0E0,0E0,0E0,0E0,0E0,0E0,0E0,0E0,0E0],"parents":[2147483647,0,0,1,1,2,2,3,3,4,4,5,5,6,6,9,9,10,10,11,11,12,12,16,16,19,19,20,20,21,21,22,22],"right_children":[2,4,6,8,10,12,14,-1,-1,16,18,20,22,-1,-1,-1,24,-1,-1,26,28,30,32,-1,-1,-1,-1,-1,-1,-1,-1,-1,-1],"split_conditions":[1.5330625E-1,-4.86361E-1,1.3056028E0,-9.6161383E-1,-2.2611155E-1,1.2612926E0,1.305826E0,-8.317454E-2,-8.317454E-2,-4.2042196E-1,-5.9278715E-2,1.2553983E0,1.2701114E0,8.871045E-2,8.871045E-2,-4.568176E-2,-3.2073358E-1,-3.9527915E-2,-5.4693837E-2,1.240063E0,1.2577245E0,1.2654198E0,1.3019109E0,-6.795411E-2,-8.361502E-2,9.565916E-3,7.369277E-2,-1.3488063E-3,-1.466245E-2,9.064805E-2,7.4047096E-2,4.2697728E-2,2.49597E-2],"split_indices":[0,0,0,0,0,0,0,0,0,0,0,0,0,0,0,0,0,0,0,0,0,0,0,0,0,0,0,0,0,0,0,0,0],"split_type":[0,0,0,0,0,0,0,0,0,0,0,0,0,0,0,0,0,0,0,0,0,0,0,0,0,0,0,0,0,0,0,0,0],"sum_hessian":[1.3986414E3,4.9480164E2,9.038398E2,4.261327E2,6.866895E1,6.894091E2,2.1443068E2,6.987098E1,3.562617E2,4.569928E1,2.2969675E1,3.4614603E2,3.432631E2,5.52182E0,2.0890886E2,7.878256E0,3.7821026E1,8.545629E0,1.4424046E1,2.92554E2,5.359202E1,2.069957E1,3.225635E2,2.467293E1,1.3148096E1,2.588177E2,3.3736305E1,1.4874484E1,3.8717533E1,6.985833E0,1.37137375E1,1.9613739E2,1.2642613E2],"tree_param":{"num_deleted":"0","num_feature":"1","num_nodes":"33","size_leaf_vector":"1"}},{"base_weights":[-2.5962563E-2,-1.0172268E0,4.902177E-1,-1.055376E0,-7.872462E-1,2.9757318E-1,1.1087172E0,-8.2797736E-2,-8.2797736E-2,-8.510121E-1,-3.6120094E-2,1.4494978E-1,4.5565966E-1,6.5725155E-2,8.783974E-2,-4.4974905E-2,-8.972792E-1,2.0330559E-1,-1.5766937E-1,1.0442144E0,4.1912568E-1,-7.851398E-2,-6.613174E-2,9.321405E-3,6.947144E-2,-1.8850192E-2,6.5085026E-3,8.959123E-2,7.789644E-2,1.6081817E-2,3.7795547E-2],"categories":[],"categories_nodes":[],"categories_segments":[],"categories_sizes":[],"default_left":[0,0,0,0,0,0,0,0,0,0,0,0,0,0,0,0,0,0,0,0,0,0,0,0,0,0,0,0,0,0,0],"id":23,"left_children":[1,3,5,7,9,11,13,-1,-1,15,-1,17,19,-1,-1,-1,21,23,25,27,29,-1,-1,-1,-1,-1,-1,-1,-1,-1,-1],"loss_changes":[6.857305E2,4.026245E0,1.0500421E2,3.0517578E-5,1.3607979E0,1.6213173E1,6.196594E-1,0E0,0E0,7.020607E-1,0E0,6.0377116E0,7.0974503E0,0E0,0E0,0E0,2.6335907E-1,1.6521053E1,1.0986161E0,9.6767426E-2,4.168335E0,0E0,0E0,0E0,0E0,0E0,0E0,0E0,0E0,0E0,0E0],"parents":[2147483647,0,0,1,1,2,2,3,3,4,4,5,5,6,6,9,9,11,11,12,12,16,16,17,17,18,18,19,19,20,20],"right_children":[2,4,6,8,10,12,14,-1,-1,16,-1,18,20,-1,-1,-1,22,24,26,28,30,-1,-1,-1,-1,-1,-1,-1,-1,-1,-1],"split_conditions":[1.5330625E-1,-4.86361E-1,1.3053536E0,-1.0033436E0,-2.3480846E-2,1.2612926E0,1.3056028E0,-8.2797736E-2,-8.2797736E-2,-4.2042196E-1,-3.6120094E-2,1.2553983E0,1.2701114E0,6.5725155E-2,8.783974E-2,-4.4974905E-2,-3.606176E-1,1.240063E0,1.2598007E0,1.2654198E0,1.2831525E0,-7.851398E-2,-6.613174E-2,9.321405E-3,6.947144E-2,-1.8850192E-2,6.5085026E-3,8.959123E-2,7.789644E-2,1.6081817E-2,3.7795547E-2],"split_indices":[0,0,0,0,0,0,0,0,0,0,0,0,0,0,0,0,0,0,0,0,0,0,0,0,0,0,0,0,0,0,0],"split_type":[0,0,0,0,0,0,0,0,0,0,0,0,0,0,0,0,0,0,0,0,0,0,0,0,0,0,0,0,0,0,0],"sum_hessian":[1.3401786E3,4.5890497E2,8.812737E2,3.9361227E2,6.5292694E1,6.719736E2,2.0930013E2,8.203363E0,3.854089E2,5.463385E1,1.0658845E1,3.4189432E2,3.3007925E2,8.112915E0,2.0118721E2,7.801473E0,4.683238E1,2.866231E2,5.52712E1,1.9291845E1,3.107874E2,1.6122765E1,3.0709614E1,2.5503697E2,3.1586136E1,4.1146435E1,1.41247635E1,6.640711E0,1.2651134E1,7.033027E1,2.4045714E2],"tree_param":{"num_deleted":"0","num_feature":"1","num_nodes":"31","size_leaf_vector":"1"}},{"base_weights":[-2.0026116E-2,-9.813465E-1,4.855906E-1,-1.0300661E0,-4.260038E-1,3.063222E-1,1.1095824E0,-1.0509758E0,-8.395805E-1,-4.766086E-2,-3.4928435E-1,1.6012923E-1,4.5056322E-1,8.705041E-2,8.705041E-2,-8.245252E-2,-8.245252E-2,-4.1497372E-2,-9.0748143E-1,-3.3385752E-4,-3.630205E-2,2.9108244E-1,3.8230304E-2,5.4878736E-1,2.869421E-1,-6.502782E-2,-8.289715E-2,8.7227225E-3,6.456877E-2,-1.4126457E-2,1.982351E-2,3.901614E-2,6.927617E-2,2.0440922E-3,3.2655496E-2],"categories":[],"categories_nodes":[],"categories_segments":[],"categories_sizes":[],"default_left":[0,0,0,0,0,0,0,0,0,0,0,0,0,0,0,0,0,0,0,0,0,0,0,0,0,0,0,0,0,0,0,0,0,0,0],"id":24,"left_children":[1,3,5,7,9,11,13,15,17,-1,19,21,23,-1,-1,-1,-1,-1,25,-1,-1,27,29,31,33,-1,-1,-1,-1,-1,-1,-1,-1,-1,-1],"loss_changes":[6.250384E2,1.1992035E1,9.426628E1,1.6229858E0,4.977789E-1,1.38042145E1,3.0517578E-5,6.1035156E-5,8.501339E-1,0E0,9.834454E-1,5.1898384E0,5.2958145E0,0E0,0E0,0E0,0E0,0E0,3.878193E-1,0E0,0E0,1.4998969E1,7.882235E0,3.542286E0,4.1696253E0,0E0,0E0,0E0,0E0,0E0,0E0,0E0,0E0,0E0,0E0],"parents":[2147483647,0,0,1,1,2,2,3,3,4,4,5,5,6,6,7,7,8,8,10,10,11,11,12,12,18,18,21,21,22,22,23,23,24,24],"right_children":[2,4,6,8,10,12,14,16,18,-1,20,22,24,-1,-1,-1,-1,-1,26,-1,-1,28,30,32,34,-1,-1,-1,-1,-1,-1,-1,-1,-1,-1],"split_conditions":[4.7985658E-1,-2.2611155E-1,1.3056028E0,-4.86361E-1,-2.3480846E-2,1.2612926E0,1.30853E0,-9.7159404E-1,-4.2042196E-1,-4.766086E-2,1.3155542E-1,1.2193501E0,1.3019109E0,8.705041E-2,8.705041E-2,-8.245252E-2,-8.245252E-2,-4.1497372E-2,-3.2073358E-1,-3.3385752E-4,-3.630205E-2,1.1739142E0,1.240063E0,1.2984127E0,1.3031856E0,-6.502782E-2,-8.289715E-2,8.7227225E-3,6.456877E-2,-1.4126457E-2,1.982351E-2,3.901614E-2,6.927617E-2,2.0440922E-3,3.2655496E-2],"split_indices":[0,0,0,0,0,0,0,0,0,0,0,0,0,0,0,0,0,0,0,0,0,0,0,0,0,0,0,0,0,0,0,0,0,0,0],"split_type":[0,0,0,0,0,0,0,0,0,0,0,0,0,0,0,0,0,0,0,0,0,0,0,0,0,0,0,0,0,0,0,0,0,0,0],"sum_hessian":[1.2859294E3,4.4322787E2,8.4270154E2,4.0748007E2,3.57478E1,6.5463074E2,1.8807079E2,3.671751E2,4.0304966E1,1.0620916E1,2.5126883E1,3.2511563E2,3.295151E2,5.037769E1,1.3769308E2,4.6658375E1,3.2051672E2,7.229778E0,3.3075188E1,6.2170944E0,1.8909788E1,1.5673686E2,1.6837878E2,2.0590651E2,1.23608604E2,2.1660221E1,1.1414966E1,1.1712564E2,3.9611217E1,8.344164E1,8.493714E1,1.784294E2,2.7477121E1,4.0961155E1,8.264745E1],"tree_param":{"num_deleted":"0","num_feature":"1","num_nodes":"35","size_leaf_vector":"1"}},{"base_weights":[-1.4561426E-2,-1.0002306E0,4.5225653E-1,-1.0469413E0,-7.2585714E-1,2.8037244E-1,8.6333685E-2,-8.2136E-2,-1.0469413E0,-8.193842E-1,-5.535176E-1,1.3879047E-1,4.2966542E-1,-8.2136E-2,-8.2136E-2,-3.8752902E-2,-8.918363E-1,-3.2565996E-2,-4.9831748E-2,1.9611678E-1,-1.6224179E-1,9.5977163E-1,3.9933768E-1,-6.302468E-2,-8.2543634E-2,8.842846E-3,6.922697E-2,-1.3193885E-3,-1.7002802E-2,8.824709E-2,6.868183E-2,3.7937883E-2,2.1635486E-2],"categories":[],"categories_nodes":[],"categories_segments":[],"categories_sizes":[],"default_left":[0,0,0,0,0,0,0,0,0,0,0,0,0,0,0,0,0,0,0,0,0,0,0,0,0,0,0,0,0,0,0,0,0],"id":25,"left_children":[1,3,5,7,9,11,-1,-1,13,15,17,19,21,-1,-1,-1,23,-1,-1,25,27,29,31,-1,-1,-1,-1,-1,-1,-1,-1,-1,-1],"loss_changes":[5.702089E2,5.1044617E0,9.369415E1,3.0517578E-5,9.339218E-1,1.404982E1,0E0,0E0,3.0517578E-5,8.855381E-1,2.3038721E-1,5.8873987E0,5.2014885E0,0E0,0E0,0E0,4.357834E-1,0E0,0E0,1.6403244E1,4.3240738E-1,2.436924E-1,3.1852493E0,0E0,0E0,0E0,0E0,0E0,0E0,0E0,0E0,0E0,0E0],"parents":[2147483647,0,0,1,1,2,2,3,3,4,4,5,5,8,8,9,9,10,10,11,11,12,12,16,16,19,19,20,20,21,21,22,22],"right_children":[2,4,6,8,10,12,-1,-1,14,16,18,20,22,-1,-1,-1,24,-1,-1,26,28,30,32,-1,-1,-1,-1,-1,-1,-1,-1,-1,-1],"split_conditions":[1.5330625E-1,-4.86361E-1,1.3056028E0,-1.0000721E0,-2.2611155E-1,1.2612926E0,8.6333685E-2,-8.2136E-2,-7.0179766E-1,-4.2042196E-1,-5.9278715E-2,1.2553983E0,1.2701114E0,-8.2136E-2,-8.2136E-2,-3.8752902E-2,-3.2073358E-1,-3.2565996E-2,-4.9831748E-2,1.240063E0,1.2577245E0,1.2654198E0,1.3019109E0,-6.302468E-2,-8.2543634E-2,8.842846E-3,6.922697E-2,-1.3193885E-3,-1.7002802E-2,8.824709E-2,6.868183E-2,3.7937883E-2,2.1635486E-2],"split_indices":[0,0,0,0,0,0,0,0,0,0,0,0,0,0,0,0,0,0,0,0,0,0,0,0,0,0,0,0,0,0,0,0,0],"split_type":[0,0,0,0,0,0,0,0,0,0,0,0,0,0,0,0,0,0,0,0,0,0,0,0,0,0,0,0,0,0,0,0,0],"sum_hessian":[1.2392396E3,3.982819E2,8.409577E2,3.4034058E2,5.7941315E1,6.6469653E2,1.7626117E2,1.2291146E1,3.280494E2,3.75586E1,2.0382715E1,3.4115875E2,3.235378E2,2.765722E2,5.1477207E1,6.8393297E0,3.071927E1,7.563019E0,1.2819695E1,2.865839E2,5.457486E1,1.7508158E1,3.0602963E2,1.9792536E1,1.0926735E1,2.5552995E2,3.1053934E1,1.4873972E1,3.9700886E1,5.919875E0,1.1588282E1,1.8197406E2,1.2405558E2],"tree_param":{"num_deleted":"0","num_feature":"1","num_nodes":"33","size_leaf_vector":"1"}},{"base_weights":[-2.7810786E-2,-9.902484E-1,4.07226E-1,-1.0432398E0,-6.905901E-1,2.3068565E-1,1.0843301E0,-8.184561E-2,-8.184561E-2,-8.038172E-1,-4.8815936E-1,9.783975E-2,3.7544617E-1,7.155279E-2,8.568187E-2,-3.8796023E-2,-8.776232E-1,-4.600962E-2,-3.0088734E-2,1.6098262E-1,-2.3524627E-1,6.8223554E-1,3.1088635E-1,-6.198041E-2,-8.2219556E-2,7.0713246E-3,6.2260374E-2,-2.6220344E-2,-1.0709202E-2,4.3918844E-2,7.2752744E-2,-2.9930964E-2,3.1033387E-2],"categories":[],"categories_nodes":[],"categories_segments":[],"categories_sizes":[],"default_left":[0,0,0,0,0,0,0,0,0,0,0,0,0,0,0,0,0,0,0,0,0,0,0,0,0,0,0,0,0,0,0,0,0],"id":26,"left_children":[1,3,5,7,9,11,13,-1,-1,15,17,19,21,-1,-1,-1,23,-1,-1,25,27,29,31,-1,-1,-1,-1,-1,-1,-1,-1,-1,-1],"loss_changes":[4.9849207E2,5.885376E0,9.801395E1,3.0517578E-5,1.2765274E0,1.2507343E1,2.281189E-1,0E0,0E0,8.153496E-1,2.0547867E-1,7.1329336E0,6.16436E0,0E0,0E0,0E0,4.3035316E-1,0E0,0E0,1.2778136E1,5.2816534E-1,1.6236401E0,1.5075592E1,0E0,0E0,0E0,0E0,0E0,0E0,0E0,0E0,0E0,0E0],"parents":[2147483647,0,0,1,1,2,2,3,3,4,4,5,5,6,6,9,9,10,10,11,11,12,12,16,16,19,19,20,20,21,21,22,22],"right_children":[2,4,6,8,10,12,14,-1,-1,16,18,20,22,-1,-1,-1,24,-1,-1,26,28,30,32,-1,-1,-1,-1,-1,-1,-1,-1,-1,-1],"split_conditions":[1.5330625E-1,-4.86361E-1,1.3053536E0,-9.9240255E-1,-2.2611155E-1,1.2612926E0,1.3056028E0,-8.184561E-2,-8.184561E-2,-4.2042196E-1,-2.3480846E-2,1.2553983E0,1.2785918E0,7.155279E-2,8.568187E-2,-3.8796023E-2,-3.2073358E-1,-4.600962E-2,-3.0088734E-2,1.240063E0,1.2588334E0,1.2745734E0,1.2831525E0,-6.198041E-2,-8.2219556E-2,7.0713246E-3,6.2260374E-2,-2.6220344E-2,-1.0709202E-2,4.3918844E-2,7.2752744E-2,-2.9930964E-2,3.1033387E-2],"split_indices":[0,0,0,0,0,0,0,0,0,0,0,0,0,0,0,0,0,0,0,0,0,0,0,0,0,0,0,0,0,0,0,0,0],"split_type":[0,0,0,0,0,0,0,0,0,0,0,0,0,0,0,0,0,0,0,0,0,0,0,0,0,0,0,0,0,0,0,0,0],"sum_hessian":[1.190583E3,3.7063107E2,8.1995197E2,3.1493762E2,5.569345E1,6.5037946E2,1.6957248E2,1.8394869E1,2.9654276E2,3.571609E1,1.997736E1,3.3914658E2,3.112329E2,7.3521996E0,1.6222028E2,6.8806515E0,2.883544E1,1.0300542E1,9.676817E0,2.851003E2,5.404625E1,5.4108467E1,2.5712442E2,1.904462E1,9.79082E0,2.563868E2,2.8713505E1,2.6992025E1,2.7054224E1,3.6084538E1,1.802393E1,2.8019016E1,2.2910542E2],"tree_param":{"num_deleted":"0","num_feature":"1","num_nodes":"33","size_leaf_vector":"1"}},{"base_weights":[-2.6934698E-2,-9.832613E-1,3.8801885E-1,-1.0398418E0,-6.7140615E-1,2.2525813E-1,8.5088305E-2,-8.157902E-2,-8.157902E-2,-7.874917E-1,-4.6891883E-1,9.441576E-2,3.6766922E-1,-6.9251955E-1,-8.192229E-2,-4.4910572E-2,-2.8062519E-2,-1.9548136E-1,1.3749586E-1,9.326309E-1,3.3637857E-1,-6.2495504E-2,-2.60718E-2,3.2492008E-3,-4.742885E-2,6.352187E-2,4.3593165E-3,8.703457E-2,6.6100806E-2,9.548084E-3,3.1014882E-2],"categories":[],"categories_nodes":[],"categories_segments":[],"categories_sizes":[],"default_left":[0,0,0,0,0,0,0,0,0,0,0,0,0,0,0,0,0,0,0,0,0,0,0,0,0,0,0,0,0,0,0],"id":27,"left_children":[1,3,5,7,9,11,-1,-1,-1,13,15,17,19,21,-1,-1,-1,23,25,27,29,-1,-1,-1,-1,-1,-1,-1,-1,-1,-1],"loss_changes":[4.5596268E2,6.1350403E0,9.084646E1,3.0517578E-5,1.2551003E0,1.2103149E1,0E0,0E0,0E0,8.274784E-1,2.2404289E-1,4.227708E0,5.49823E0,9.287081E-1,0E0,0E0,0E0,4.2442527E0,1.6230944E1,2.598753E-1,3.7294655E0,0E0,0E0,0E0,0E0,0E0,0E0,0E0,0E0,0E0,0E0],"parents":[2147483647,0,0,1,1,2,2,3,3,4,4,5,5,9,9,10,10,11,11,12,12,13,13,17,17,18,18,19,19,20,20],"right_children":[2,4,6,8,10,12,-1,-1,-1,14,16,18,20,22,-1,-1,-1,24,26,28,30,-1,-1,-1,-1,-1,-1,-1,-1,-1,-1],"split_conditions":[1.5330625E-1,-4.86361E-1,1.3056028E0,-7.246107E-1,-2.2611155E-1,1.2612926E0,8.5088305E-2,-8.157902E-2,-8.157902E-2,-3.2073358E-1,-2.3480846E-2,8.2254535E-1,1.2701114E0,-3.606176E-1,-8.192229E-2,-4.4910572E-2,-2.8062519E-2,7.602567E-1,1.1139044E0,1.2654198E0,1.2831525E0,-6.2495504E-2,-2.60718E-2,3.2492008E-3,-4.742885E-2,6.352187E-2,4.3593165E-3,8.703457E-2,6.6100806E-2,9.548084E-3,3.1014882E-2],"split_indices":[0,0,0,0,0,0,0,0,0,0,0,0,0,0,0,0,0,0,0,0,0,0,0,0,0,0,0,0,0,0,0],"split_type":[0,0,0,0,0,0,0,0,0,0,0,0,0,0,0,0,0,0,0,0,0,0,0,0,0,0,0,0,0,0,0],"sum_hessian":[1.1490095E3,3.476938E2,8.013157E2,2.9429855E2,5.3395218E1,6.495404E2,1.5177528E2,2.3519565E2,5.91029E1,3.39384E1,1.9456816E1,3.3852E2,3.1102042E2,2.4773705E1,9.164697E0,1.0076805E1,9.380011E0,4.379722E1,2.9472278E2,1.6322004E1,2.946984E2,1.9220213E1,5.5534916E0,2.7735294E1,1.6061924E1,3.202002E1,2.6270276E2,5.51025E0,1.0811754E1,6.349072E1,2.3120769E2],"tree_param":{"num_deleted":"0","num_feature":"1","num_nodes":"31","size_leaf_vector":"1"}},{"base_weights":[-3.4251187E-2,-9.507148E-1,3.717644E-1,-1.008529E0,-4.1501576E-1,2.143194E-1,8.4547095E-2,-1.0367206E0,-7.7141744E-1,-3.0548456E-1,-4.013475E-2,1.3619445E-1,3.5221335E-1,-8.133415E-2,-8.133416E-2,-3.4968924E-2,-8.5209155E-1,-4.2694796E-2,6.955284E-3,1.715386E-1,-4.6953153E-2,5.607539E-1,1.6083883E-1,-5.9535336E-2,-8.164942E-2,9.073645E-3,3.6262367E-2,3.8063843E-2,6.50179E-2,-7.85707E-3,2.2866284E-2],"categories":[],"categories_nodes":[],"categories_segments":[],"categories_sizes":[],"default_left":[0,0,0,0,0,0,0,0,0,0,0,0,0,0,0,0,0,0,0,0,0,0,0,0,0,0,0,0,0,0,0],"id":28,"left_children":[1,3,5,7,9,11,-1,13,15,17,-1,19,21,-1,-1,-1,23,-1,-1,25,-1,27,29,-1,-1,-1,-1,-1,-1,-1,-1],"loss_changes":[4.088094E2,1.0446533E1,8.4618904E1,2.0350647E0,3.4749842E-1,6.706316E0,0E0,3.0517578E-5,8.500061E-1,1.4484351E0,0E0,1.0318543E1,8.985079E0,0E0,0E0,0E0,4.5601082E-1,0E0,0E0,6.1585636E0,0E0,2.1820602E0,4.002367E0,0E0,0E0,0E0,0E0,0E0,0E0,0E0,0E0],"parents":[2147483647,0,0,1,1,2,2,3,3,4,4,5,5,7,7,8,8,9,9,11,11,12,12,16,16,19,19,21,21,22,22],"right_children":[2,4,6,8,10,12,-1,14,16,18,-1,20,22,-1,-1,-1,24,-1,-1,26,-1,28,30,-1,-1,-1,-1,-1,-1,-1,-1],"split_conditions":[4.7985658E-1,-2.2611155E-1,1.3056028E0,-4.86361E-1,1.3155542E-1,1.2831525E0,8.4547095E-2,-1.0012275E0,-4.2042196E-1,-2.3480846E-2,-4.013475E-2,1.2808462E0,1.3019109E0,-8.133415E-2,-8.133416E-2,-3.4968924E-2,-3.2073358E-1,-4.2694796E-2,6.955284E-3,1.2612926E0,-4.6953153E-2,1.2984127E0,1.3031856E0,-5.9535336E-2,-8.164942E-2,9.073645E-3,3.6262367E-2,3.8063843E-2,6.50179E-2,-7.85707E-3,2.2866284E-2],"split_indices":[0,0,0,0,0,0,0,0,0,0,0,0,0,0,0,0,0,0,0,0,0,0,0,0,0,0,0,0,0,0,0],"split_type":[0,0,0,0,0,0,0,0,0,0,0,0,0,0,0,0,0,0,0,0,0,0,0,0,0,0,0,0,0,0,0],"sum_hessian":[1.098659E3,3.3730035E2,7.613587E2,3.044439E2,3.2856434E1,6.225141E2,1.3884457E2,2.7209305E2,3.235087E1,1.5394177E1,1.7462255E1,3.9737695E2,2.2513715E2,7.960532E0,2.641325E2,6.4225354E0,2.5928333E1,9.587335E0,5.8068433E0,3.7913733E2,1.823963E1,1.07736664E2,1.1740048E2,1.7352743E1,8.575589E0,3.1800223E2,6.113512E1,8.4037575E1,2.3699095E1,3.915959E1,7.824089E1],"tree_param":{"num_deleted":"0","num_feature":"1","num_nodes":"31","size_leaf_vector":"1"}},{"base_weights":[-1.9107394E-2,-9.71567E-1,3.537869E-1,-1.0201392E0,-5.492744E-1,2.0547538E-1,8.405307E-2,-1.0338522E0,-8.232067E-1,-7.362412E-1,-4.1288367E-1,9.578791E-2,3.2897264E-1,-8.1109114E-2,-8.110912E-2,-4.5862444E-2,-7.486802E-2,-2.1194011E-2,-8.139883E-2,-2.266026E-2,-3.784445E-2,-1.5853451E-1,1.4605376E-1,9.009907E-1,2.994054E-1,-1.4284434E-3,-2.331879E-2,9.998117E-2,4.8379647E-3,7.0342235E-2,7.134825E-2,9.367295E-3,2.7479373E-2],"categories":[],"categories_nodes":[],"categories_segments":[],"categories_sizes":[],"default_left":[0,0,0,0,0,0,0,0,0,0,0,0,0,0,0,0,0,0,0,0,0,0,0,0,0,0,0,0,0,0,0,0,0],"id":29,"left_children":[1,3,5,7,9,11,-1,13,15,17,19,21,23,-1,-1,-1,-1,-1,-1,-1,-1,25,27,29,31,-1,-1,-1,-1,-1,-1,-1,-1],"loss_changes":[3.798447E2,6.172058E0,8.1797455E1,7.2875977E-1,7.9153156E-1,8.628012E0,0E0,3.0517578E-5,5.495672E-1,1.8386478E0,1.5472412E-1,4.3123236E0,5.067272E0,0E0,0E0,0E0,0E0,0E0,0E0,0E0,0E0,1.0834816E0,2.6819101E1,5.4454803E-4,2.608059E0,0E0,0E0,0E0,0E0,0E0,0E0,0E0,0E0],"parents":[2147483647,0,0,1,1,2,2,3,3,4,4,5,5,7,7,8,8,9,9,10,10,11,11,12,12,21,21,22,22,23,23,24,24],"right_children":[2,4,6,8,10,12,-1,14,16,18,20,22,24,-1,-1,-1,-1,-1,-1,-1,-1,26,28,30,32,-1,-1,-1,-1,-1,-1,-1,-1],"split_conditions":[1.5330625E-1,-3.606176E-1,1.3056028E0,-4.86361E-1,-2.2611155E-1,1.2612926E0,8.405307E-2,-1.0033436E0,-4.2042196E-1,-3.2073358E-1,-5.9278715E-2,9.4117E-1,1.2701114E0,-8.1109114E-2,-8.110912E-2,-4.5862444E-2,-7.486802E-2,-2.1194011E-2,-8.139883E-2,-2.266026E-2,-3.784445E-2,7.602567E-1,1.1139044E0,1.2681183E0,1.2831525E0,-1.4284434E-3,-2.331879E-2,9.998117E-2,4.8379647E-3,7.0342235E-2,7.134825E-2,9.367295E-3,2.7479373E-2],"split_indices":[0,0,0,0,0,0,0,0,0,0,0,0,0,0,0,0,0,0,0,0,0,0,0,0,0,0,0,0,0,0,0,0,0],"split_type":[0,0,0,0,0,0,0,0,0,0,0,0,0,0,0,0,0,0,0,0,0,0,0,0,0,0,0,0,0,0,0,0,0],"sum_hessian":[1.0694828E3,3.0090378E2,7.68579E2,2.6986392E2,3.1039848E1,6.369369E2,1.3164209E2,2.5229584E2,1.7568098E1,1.30924635E1,1.7947384E1,3.3732898E2,2.996079E2,5.257483E0,2.4703835E2,6.229258E0,1.133884E1,5.1405063E0,7.951957E0,6.4445744E0,1.15028105E1,5.5669014E1,2.8165997E2,1.47254E1,2.848825E2,2.7671904E1,2.7997108E1,1.9598999E1,2.6206097E2,9.69803E0,5.0273685E0,6.27587E1,2.221238E2],"tree_param":{"num_deleted":"0","num_feature":"1","num_nodes":"33","size_leaf_vector":"1"}},{"base_weights":[-1.7470255E-2,-9.8201203E-1,3.2438257E-1,-8.090221E-2,-6.8110156E-1,1.7856042E-1,1.0467676E0,-3.0472586E-2,-7.3500353E-1,-1.3579655E-1,2.1397108E-1,5.315223E-2,8.360163E-2,-7.408196E-2,-6.335348E-1,-1.0235507E-2,-3.05073E-1,9.793289E-2,1.8006133E-1,-3.4941833E-2,-5.627945E-2,-1.4260611E-2,2.171513E-2,-3.5505127E-2,-9.202323E-3,-1.7159592E-2,1.7731735E-2],"categories":[],"categories_nodes":[],"categories_segments":[],"categories_sizes":[],"default_left":[0,0,0,0,0,0,0,0,0,0,0,0,0,0,0,0,0,0,0,0,0,0,0,0,0,0,0],"id":30,"left_children":[1,3,5,-1,7,9,11,-1,13,15,17,-1,-1,-1,19,21,23,-1,25,-1,-1,-1,-1,-1,-1,-1,-1],"loss_changes":[3.417473E2,4.015503E0,8.0609055E1,0E0,6.013069E-1,7.087515E0,8.948822E-1,0E0,6.8349266E-1,1.3700695E0,2.0070663E1,0E0,0E0,0E0,3.4189224E-1,1.8221444E0,7.602718E-1,0E0,1.0154144E1,0E0,0E0,0E0,0E0,0E0,0E0,0E0,0E0],"parents":[2147483647,0,0,1,1,2,2,4,4,5,5,6,6,8,8,9,9,10,10,14,14,15,15,16,16,18,18],"right_children":[2,4,6,-1,8,10,12,-1,14,16,18,-1,-1,-1,20,22,24,-1,26,-1,-1,-1,-1,-1,-1,-1,-1],"split_conditions":[-2.3480846E-2,-4.86361E-1,1.3053536E0,-8.090221E-2,-4.2042196E-1,9.4117E-1,1.3056028E0,-3.0472586E-2,-3.606176E-1,7.602567E-1,1.1139044E0,5.315223E-2,8.360163E-2,-7.408196E-2,-3.083485E-1,4.7985658E-1,8.2254535E-1,9.793289E-2,1.1739142E0,-3.4941833E-2,-5.627945E-2,-1.4260611E-2,2.171513E-2,-3.5505127E-2,-9.202323E-3,-1.7159592E-2,1.7731735E-2],"split_indices":[0,0,0,0,0,0,0,0,0,0,0,0,0,0,0,0,0,0,0,0,0,0,0,0,0,0,0],"split_type":[0,0,0,0,0,0,0,0,0,0,0,0,0,0,0,0,0,0,0,0,0,0,0,0,0,0,0],"sum_hessian":[1.0364418E3,2.7121252E2,7.652293E2,2.3309792E2,3.8114597E1,6.3670306E2,1.2852621E2,5.9276714E0,3.2186928E1,6.446014E1,5.722429E2,6.2439036E0,1.2228231E2,1.0510078E1,2.167685E1,3.7008804E1,2.7451334E1,1.8165136E1,5.540778E2,6.68111E0,1.4995739E1,2.316476E1,1.3844044E1,1.53749275E1,1.2076406E1,5.7253014E1,4.968248E2],"tree_param":{"num_deleted":"0","num_feature":"1","num_nodes":"27","size_leaf_vector":"1"}},{"base_weights":[-2.176004E-2,-9.758695E-1,2.9870296E-1,-8.07119E-2,-6.6088307E-1,1.6298757E-1,8.318872E-2,-2.9901464E-2,-7.148937E-1,2.1316431E-2,2.617716E-1,-7.344011E-2,-6.0758847E-1,8.789108E-2,-5.1921624E-1,8.161785E-1,2.1821088E-1,-3.1505436E-2,-5.4735303E-2,-1.5208065E-2,1.3109692E-2,-6.861332E-2,-1.2374465E-2,4.7319766E-2,7.222608E-2,-1.8172417E-2,2.1695927E-2],"categories":[],"categories_nodes":[],"categories_segments":[],"categories_sizes":[],"default_left":[0,0,0,0,0,0,0,0,0,0,0,0,0,0,0,0,0,0,0,0,0,0,0,0,0,0,0],"id":31,"left_children":[1,3,5,-1,7,9,-1,-1,11,13,15,-1,17,19,21,23,25,-1,-1,-1,-1,-1,-1,-1,-1,-1,-1],"loss_changes":[3.0722574E2,4.211197E0,7.775057E1,0E0,5.4905415E-1,8.934496E0,0E0,0E0,7.2297764E-1,9.438116E0,9.083916E0,0E0,3.8064575E-1,5.211268E0,3.6945086E0,6.0964966E-1,9.151468E0,0E0,0E0,0E0,0E0,0E0,0E0,0E0,0E0,0E0,0E0],"parents":[2147483647,0,0,1,1,2,2,4,4,5,5,8,8,9,9,10,10,12,12,13,13,14,14,15,15,16,16],"right_children":[2,4,6,-1,8,10,-1,-1,12,14,16,-1,18,20,22,24,26,-1,-1,-1,-1,-1,-1,-1,-1,-1,-1],"split_conditions":[-2.3480846E-2,-4.86361E-1,1.3056028E0,-8.07119E-2,-4.2042196E-1,1.240063E0,8.318872E-2,-2.9901464E-2,-3.606176E-1,1.2351441E0,1.2553983E0,-7.344011E-2,-3.083485E-1,8.2254535E-1,1.2370856E0,1.2450635E0,1.2598007E0,-3.1505436E-2,-5.4735303E-2,-1.5208065E-2,1.3109692E-2,-6.861332E-2,-1.2374465E-2,4.7319766E-2,7.222608E-2,-1.8172417E-2,2.1695927E-2],"split_indices":[0,0,0,0,0,0,0,0,0,0,0,0,0,0,0,0,0,0,0,0,0,0,0,0,0,0,0],"split_type":[0,0,0,0,0,0,0,0,0,0,0,0,0,0,0,0,0,0,0,0,0,0,0,0,0,0,0],"sum_hessian":[1.00480444E3,2.526358E2,7.5216864E2,2.162967E2,3.633909E1,6.384133E2,1.1375531E2,5.880621E0,3.045847E1,2.6227356E2,3.7613974E2,9.948984E0,2.0509485E1,2.3351297E2,2.8760597E1,2.7401016E1,3.487387E2,6.2402744E0,1.4269211E1,5.1244553E1,1.8226842E2,1.4503207E1,1.425739E1,9.0149355E0,1.838608E1,4.0032383E1,3.0870633E2],"tree_param":{"num_deleted":"0","num_feature":"1","num_nodes":"27","size_leaf_vector":"1"}},{"base_weights":[-1.5834326E-2,-9.530777E-1,2.99864E-1,-8.053677E-2,-6.069491E-1,1.7231609E-1,8.281073E-2,-7.3123056E-1,-4.136341E-1,7.5312115E-2,2.828198E-1,-2.5118299E-2,-8.398806E-1,-1.4817956E-2,-4.1796766E-2,2.0102224E-1,-5.453568E-2,3.9599314E-1,1.0606641E-1,-5.8283992E-2,-8.09082E-2,1.7941898E-3,6.158764E-2,-1.7318666E-2,9.486968E-3,1.771627E-2,4.3297548E-2,-8.388555E-3,1.3581459E-2],"categories":[],"categories_nodes":[],"categories_segments":[],"categories_sizes":[],"default_left":[0,0,0,0,0,0,0,0,0,0,0,0,0,0,0,0,0,0,0,0,0,0,0,0,0,0,0,0,0],"id":32,"left_children":[1,3,5,-1,7,9,-1,11,13,15,17,-1,19,-1,-1,21,23,25,27,-1,-1,-1,-1,-1,-1,-1,-1,-1,-1],"loss_changes":[2.8510178E2,6.1747284E0,6.947152E1,0E0,1.021431E0,6.610407E0,0E0,1.1557493E0,4.4543862E-1,5.36055E0,5.76672E0,0E0,3.7989426E-1,0E0,0E0,1.736023E1,4.711259E0,4.662565E0,1.6070309E0,0E0,0E0,0E0,0E0,0E0,0E0,0E0,0E0,0E0,0E0],"parents":[2147483647,0,0,1,1,2,2,4,4,5,5,7,7,8,8,9,9,10,10,12,12,15,15,16,16,17,17,18,18],"right_children":[2,4,6,-1,8,10,-1,12,14,16,18,-1,20,-1,-1,22,24,26,28,-1,-1,-1,-1,-1,-1,-1,-1,-1,-1],"split_conditions":[1.5330625E-1,-4.86361E-1,1.3056028E0,-8.053677E-2,-2.2611155E-1,1.2612926E0,8.281073E-2,-4.2042196E-1,-5.9278715E-2,1.2193501E0,1.3019109E0,-2.5118299E-2,-3.2073358E-1,-1.4817956E-2,-4.1796766E-2,1.1739142E0,1.240063E0,1.2851579E0,1.3028111E0,-5.8283992E-2,-8.09082E-2,1.7941898E-3,6.158764E-2,-1.7318666E-2,9.486968E-3,1.771627E-2,4.3297548E-2,-8.388555E-3,1.3581459E-2],"split_indices":[0,0,0,0,0,0,0,0,0,0,0,0,0,0,0,0,0,0,0,0,0,0,0,0,0,0,0,0,0],"split_type":[0,0,0,0,0,0,0,0,0,0,0,0,0,0,0,0,0,0,0,0,0,0,0,0,0,0,0,0,0],"sum_hessian":[9.6355225E2,2.4278212E2,7.2077014E2,2.0026765E2,4.251447E1,6.166826E2,1.0408749E2,2.5877756E1,1.6636711E1,3.28401E2,2.8828165E2,5.4099584E0,2.0467798E1,5.76317E0,1.0873542E1,1.6685901E2,1.6154198E2,1.7575049E2,1.1253116E2,1.3585481E1,6.8823175E0,1.27855865E2,3.9003155E1,8.29565E1,7.858547E1,8.402748E1,9.1723015E1,2.694292E1,8.558824E1],"tree_param":{"num_deleted":"0","num_feature":"1","num_nodes":"29","size_leaf_vector":"1"}},{"base_weights":[-1.8893722E-2,-9.673753E-1,2.6706907E-1,-8.037555E-2,-6.351398E-1,1.4517975E-1,8.246442E-2,-2.4241377E-2,-7.006302E-1,-1.5371554E-1,1.7910284E-1,-7.186654E-2,-5.9737945E-1,-4.236063E-2,-3.0016428E-1,9.585436E-2,1.4605989E-1,-2.613922E-2,-5.640943E-2,-1.3855063E-2,1.5218546E-2,-4.2397246E-2,-2.9484392E-4,2.6007702E-3,1.9560475E-2],"categories":[],"categories_nodes":[],"categories_segments":[],"categories_sizes":[],"default_left":[0,0,0,0,0,0,0,0,0,0,0,0,0,0,0,0,0,0,0,0,0,0,0,0,0],"id":33,"left_children":[1,3,5,-1,7,9,-1,-1,11,13,15,-1,17,19,21,-1,23,-1,-1,-1,-1,-1,-1,-1,-1],"loss_changes":[2.548438E2,4.1310425E0,6.899332E1,0E0,6.821041E-1,6.3350887E0,0E0,0E0,5.914955E-1,1.0385356E0,1.9332485E1,0E0,5.7773685E-1,1.1477673E0,1.9588273E0,0E0,6.34147E0,0E0,0E0,0E0,0E0,0E0,0E0,0E0,0E0],"parents":[2147483647,0,0,1,1,2,2,4,4,5,5,8,8,9,9,10,10,12,12,13,13,14,14,16,16],"right_children":[2,4,6,-1,8,10,-1,-1,12,14,16,-1,18,20,22,-1,24,-1,-1,-1,-1,-1,-1,-1,-1],"split_conditions":[-2.3480846E-2,-4.86361E-1,1.3056028E0,-8.037555E-2,-4.2042196E-1,9.4117E-1,8.246442E-2,-2.4241377E-2,-3.606176E-1,7.602567E-1,1.1139044E0,-7.186654E-2,-3.083485E-1,4.7985658E-1,8.2254535E-1,9.585436E-2,1.2612926E0,-2.613922E-2,-5.640943E-2,-1.3855063E-2,1.5218546E-2,-4.2397246E-2,-2.9484392E-4,2.6007702E-3,1.9560475E-2],"split_indices":[0,0,0,0,0,0,0,0,0,0,0,0,0,0,0,0,0,0,0,0,0,0,0,0,0],"split_type":[0,0,0,0,0,0,0,0,0,0,0,0,0,0,0,0,0,0,0,0,0,0,0,0,0],"sum_hessian":[9.395841E2,2.1765752E2,7.2192664E2,1.8572318E2,3.1934341E1,6.2479614E2,9.7130486E1,5.3400974E0,2.6594244E1,6.3683407E1,5.6111273E2,8.616865E0,1.7977379E1,3.6176193E1,2.7507212E1,1.7235388E1,5.438773E2,5.6675816E0,1.2309798E1,2.3071594E1,1.3104599E1,1.5192807E1,1.2314404E1,2.598084E2,2.8406894E2],"tree_param":{"num_deleted":"0","num_feature":"1","num_nodes":"25","size_leaf_vector":"1"}},{"base_weights":[-2.0199083E-2,-9.564701E-1,2.482201E-1,-8.022709E-2,-5.942837E-1,1.3204674E-1,8.214691E-2,-2.6162481E-2,-6.501156E-1,2.1582854E-3,2.2339782E-1,-7.108963E-2,-5.335725E-1,7.1727134E-2,-5.847921E-1,7.186535E-1,1.8360007E-1,-2.5698027E-2,-4.9370147E-2,-1.0068374E-2,1.1533283E-2,-6.946726E-2,-2.2914555E-2,4.869183E-2,7.520027E-2,-1.4711893E-2,1.8284002E-2],"categories":[],"categories_nodes":[],"categories_segments":[],"categories_sizes":[],"default_left":[0,0,0,0,0,0,0,0,0,0,0,0,0,0,0,0,0,0,0,0,0,0,0,0,0,0,0],"id":34,"left_children":[1,3,5,-1,7,9,-1,-1,11,13,15,-1,17,19,21,23,25,-1,-1,-1,-1,-1,-1,-1,-1,-1,-1],"loss_changes":[2.291307E2,4.8663177E0,6.576152E1,0E0,4.5676327E-1,7.340276E0,0E0,0E0,7.709265E-1,1.0430265E1,7.158531E0,0E0,3.5012865E-1,3.439426E0,2.382187E0,6.3510704E-1,6.1702795E0,0E0,0E0,0E0,0E0,0E0,0E0,0E0,0E0,0E0,0E0],"parents":[2147483647,0,0,1,1,2,2,4,4,5,5,8,8,9,9,10,10,12,12,13,13,14,14,15,15,16,16],"right_children":[2,4,6,-1,8,10,-1,-1,12,14,16,-1,18,20,22,24,26,-1,-1,-1,-1,-1,-1,-1,-1,-1,-1],"split_conditions":[-2.3480846E-2,-4.86361E-1,1.3056028E0,-8.022709E-2,-4.2042196E-1,1.240063E0,8.214691E-2,-2.6162481E-2,-3.606176E-1,1.2351441E0,1.2553983E0,-7.108963E-2,-3.083485E-1,9.4117E-1,1.2370856E0,1.2506183E0,1.2598007E0,-2.5698027E-2,-4.9370147E-2,-1.0068374E-2,1.1533283E-2,-6.946726E-2,-2.2914555E-2,4.869183E-2,7.520027E-2,-1.4711893E-2,1.8284002E-2],"split_indices":[0,0,0,0,0,0,0,0,0,0,0,0,0,0,0,0,0,0,0,0,0,0,0,0,0,0,0],"split_type":[0,0,0,0,0,0,0,0,0,0,0,0,0,0,0,0,0,0,0,0,0,0,0,0,0,0,0],"sum_hessian":[9.1173413E2,2.0314513E2,7.08589E2,1.7177673E2,3.1368391E1,6.18626E2,8.9963E1,5.5311146E0,2.5837276E1,2.5543425E2,3.6319177E2,8.082188E0,1.7755089E1,2.2836685E2,2.7067396E1,2.7014523E1,3.3617725E2,5.632534E0,1.2122554E1,6.2437183E1,1.6592966E2,1.3352268E1,1.3715128E1,1.9178825E1,7.8356986E0,3.953091E1,2.9664633E2],"tree_param":{"num_deleted":"0","num_feature":"1","num_nodes":"27","size_leaf_vector":"1"}},{"base_weights":[-1.4975809E-2,-9.7905695E-1,2.3441947E-1,-1.0208664E0,-6.882178E-1,1.2522152E-1,8.1855625E-2,-8.009034E-2,-8.009034E-2,-2.304916E-2,-8.0490303E-1,-1.794446E-1,1.5649334E-1,-7.0032495E-1,-8.052153E-2,-1.1604397E-1,-2.8376894E-2,7.1919286E-1,1.2820038E-1,-6.7903906E-2,-4.140671E-2,-2.0742232E-2,1.6864818E-2,7.941537E-3,9.4082534E-2,-1.8307207E-2,1.3402084E-2],"categories":[],"categories_nodes":[],"categories_segments":[],"categories_sizes":[],"default_left":[0,0,0,0,0,0,0,0,0,0,0,0,0,0,0,0,0,0,0,0,0,0,0,0,0,0,0],"id":35,"left_children":[1,3,5,7,9,11,-1,-1,-1,-1,13,15,17,19,-1,21,-1,23,25,-1,-1,-1,-1,-1,-1,-1,-1],"loss_changes":[2.1419347E2,2.2263184E0,6.252039E1,3.0517578E-5,1.0590782E0,5.941181E0,0E0,0E0,0E0,0E0,4.1127586E-1,6.7077005E-1,9.003591E0,3.4382582E-1,0E0,2.1147609E0,0E0,8.031287E0,8.298993E0,0E0,0E0,0E0,0E0,0E0,0E0,0E0,0E0],"parents":[2147483647,0,0,1,1,2,2,3,3,4,4,5,5,10,10,11,11,12,12,13,13,15,15,17,17,18,18],"right_children":[2,4,6,8,10,12,-1,-1,-1,-1,14,16,18,20,-1,22,-1,24,26,-1,-1,-1,-1,-1,-1,-1,-1],"split_conditions":[-2.2611155E-1,-4.86361E-1,1.3056028E0,-9.843302E-1,-4.2042196E-1,8.2254535E-1,8.1855625E-2,-8.009034E-2,-8.009034E-2,-2.304916E-2,-3.2073358E-1,7.602567E-1,1.1139044E0,-3.760795E-1,-8.052153E-2,4.7985658E-1,-2.8376894E-2,9.4117E-1,1.1739142E0,-6.7903906E-2,-4.140671E-2,-2.0742232E-2,1.6864818E-2,7.941537E-3,9.4082534E-2,-1.8307207E-2,1.3402084E-2],"split_indices":[0,0,0,0,0,0,0,0,0,0,0,0,0,0,0,0,0,0,0,0,0,0,0,0,0,0,0],"split_type":[0,0,0,0,0,0,0,0,0,0,0,0,0,0,0,0,0,0,0,0,0,0,0,0,0,0,0],"sum_hessian":[8.908497E2,1.830886E2,7.0776105E2,1.6007684E2,2.3011753E1,6.2358484E2,8.417621E1,1.607776E1,1.4399907E2,5.2535453E0,1.7758207E1,5.8048313E1,5.6553656E2,1.2062182E1,5.6960244E0,4.306706E1,1.4981255E1,2.7074297E1,5.384622E2,6.1619673E0,5.900215E0,2.9739159E1,1.33279E1,1.1836452E1,1.5237844E1,5.6790977E1,4.8167126E2],"tree_param":{"num_deleted":"0","num_feature":"1","num_nodes":"27","size_leaf_vector":"1"}},{"base_weights":[-2.25194E-2,-9.596667E-1,2.1623485E-1,-7.996435E-2,-6.4746153E-1,1.06524296E-1,1.0110457E0,-2.1703312E-2,-7.30285E-1,4.336281E-2,2.4397127E-1,4.9654342E-2,8.158822E-2,-8.0504805E-2,-5.9577906E-1,7.906012E-2,-3.46296E-1,5.1043266E-1,2.1204352E-2,-5.478451E-2,-3.6063395E-2,2.0403236E-3,3.760615E-2,-3.6564313E-2,1.9721293E-3,3.358741E-2,6.093248E-2,-2.0133873E-2,9.841756E-3],"categories":[],"categories_nodes":[],"categories_segments":[],"categories_sizes":[],"default_left":[0,0,0,0,0,0,0,0,0,0,0,0,0,0,0,0,0,0,0,0,0,0,0,0,0,0,0,0,0],"id":36,"left_children":[1,3,5,-1,7,9,11,-1,13,15,17,-1,-1,-1,19,21,23,25,27,-1,-1,-1,-1,-1,-1,-1,-1,-1,-1],"loss_changes":[1.937882E2,3.2718353E0,6.018905E1,0E0,8.656845E-1,5.2654777E0,9.1532135E-1,0E0,9.1690445E-1,5.780378E0,1.1335441E1,0E0,0E0,0E0,2.2102404E-1,8.0844145E0,1.5514708E0,1.9056015E0,3.0124285E0,0E0,0E0,0E0,0E0,0E0,0E0,0E0,0E0,0E0,0E0],"parents":[2147483647,0,0,1,1,2,2,4,4,5,5,6,6,8,8,9,9,10,10,14,14,15,15,16,16,17,17,18,18],"right_children":[2,4,6,-1,8,10,12,-1,14,16,18,-1,-1,-1,20,22,24,26,28,-1,-1,-1,-1,-1,-1,-1,-1,-1,-1],"split_conditions":[-2.3480846E-2,-4.86361E-1,1.3053536E0,-7.996435E-2,-4.2042196E-1,1.2851579E0,1.3056028E0,-2.1703312E-2,-3.606176E-1,1.2785918E0,1.3019109E0,4.9654342E-2,8.158822E-2,-8.0504805E-2,-2.2611155E-1,1.2612926E0,1.2831525E0,1.2984127E0,1.3028111E0,-5.478451E-2,-3.6063395E-2,2.0403236E-3,3.760615E-2,-3.6564313E-2,1.9721293E-3,3.358741E-2,6.093248E-2,-2.0133873E-2,9.841756E-3],"split_indices":[0,0,0,0,0,0,0,0,0,0,0,0,0,0,0,0,0,0,0,0,0,0,0,0,0,0,0,0,0],"split_type":[0,0,0,0,0,0,0,0,0,0,0,0,0,0,0,0,0,0,0,0,0,0,0,0,0,0,0,0,0],"sum_hessian":[8.661007E2,1.758525E2,6.902482E2,1.47666E2,2.8186487E1,6.0652716E2,8.3721085E1,5.146098E0,2.3040388E1,4.1556235E2,1.909648E2,5.94694E0,7.777414E1,7.2009354E0,1.5839453E1,3.8068695E2,3.487538E1,8.6954575E1,1.0401022E2,9.033904E0,6.8055496E0,3.3613586E2,4.4551098E1,2.6371801E1,8.503581E0,6.641968E1,2.0534899E1,2.837695E1,7.563328E1],"tree_param":{"num_deleted":"0","num_feature":"1","num_nodes":"29","size_leaf_vector":"1"}},{"base_weights":[-1.1212817E-2,-9.624367E-1,2.0751747E-1,-1.0177802E0,-5.922522E-1,1.0963079E-1,8.13426E-2,-7.9848215E-2,-7.9848215E-2,-4.4679192E-1,-6.908927E-2,-1.366261E-1,1.3480377E-1,-3.0655107E-2,-4.0770773E-2,-4.099306E-2,-3.1793293E-2,6.6468275E-1,1.08079724E-1,-1.4663369E-2,2.1361278E-2,3.3754115E-3,9.265015E-2,-1.6776053E-2,1.1553509E-2],"categories":[],"categories_nodes":[],"categories_segments":[],"categories_sizes":[],"default_left":[0,0,0,0,0,0,0,0,0,0,0,0,0,0,0,0,0,0,0,0,0,0,0,0,0],"id":37,"left_children":[1,3,5,7,9,11,-1,-1,-1,13,-1,15,17,-1,-1,19,-1,21,23,-1,-1,-1,-1,-1,-1],"loss_changes":[1.7471893E2,3.2164001E0,5.542467E1,3.0517578E-5,8.565469E-1,3.785561E0,0E0,0E0,0E0,5.5449724E-2,0E0,1.4549187E0,7.8454323E0,0E0,0E0,1.9091399E0,0E0,8.53746E0,6.6534133E0,0E0,0E0,0E0,0E0,0E0,0E0],"parents":[2147483647,0,0,1,1,2,2,3,3,4,4,5,5,9,9,11,11,12,12,15,15,17,17,18,18],"right_children":[2,4,6,8,10,12,-1,-1,-1,14,-1,16,18,-1,-1,20,-1,22,24,-1,-1,-1,-1,-1,-1],"split_conditions":[-2.2611155E-1,-4.86361E-1,1.3056028E0,-7.689703E-1,-3.4142187E-1,8.2254535E-1,8.13426E-2,-7.9848215E-2,-7.9848215E-2,-4.0009955E-1,-6.908927E-2,7.602567E-1,1.1139044E0,-3.0655107E-2,-4.0770773E-2,4.7985658E-1,-3.1793293E-2,9.4117E-1,1.1739142E0,-1.4663369E-2,2.1361278E-2,3.3754115E-3,9.265015E-2,-1.6776053E-2,1.1553509E-2],"split_indices":[0,0,0,0,0,0,0,0,0,0,0,0,0,0,0,0,0,0,0,0,0,0,0,0,0],"split_type":[0,0,0,0,0,0,0,0,0,0,0,0,0,0,0,0,0,0,0,0,0,0,0,0,0],"sum_hessian":[8.3974664E2,1.5699591E2,6.827507E2,1.3657727E2,2.0418653E1,6.106709E2,7.207979E1,9.934764E1,3.7229618E1,1.3572735E1,6.845919E0,5.6634907E1,5.54036E2,7.6727815E0,5.899953E0,4.176587E1,1.4869038E1,2.6600796E1,5.274352E2,2.8494188E1,1.3271681E1,1.2068676E1,1.453212E1,5.7236774E1,4.7019843E2],"tree_param":{"num_deleted":"0","num_feature":"1","num_nodes":"25","size_leaf_vector":"1"}},{"base_weights":[-2.4003258E-2,-9.3489265E-1,1.8409783E-1,-7.974117E-2,-5.460961E-1,8.905263E-2,8.111688E-2,-4.351594E-1,-5.412016E-2,3.170925E-2,2.1170972E-1,-4.1591793E-2,-1.9839412E-2,6.539562E-2,-4.728952E-1,4.3850976E-1,5.7157964E-2,1.761777E-3,2.6158743E-2,-5.3254217E-2,-2.231651E-3,2.7660849E-2,